solver_type L2R_L2LOSS_SVC_DUAL
nr_class 6
label 1 2 3 4 5 6
nr_feature 8896
bias -1
w
-0.00817618304248835 0.005647487041763714 -0.004046957796979119 -0.001294993866498545 0.01122842122426705 -0.004162942845606165 
-0.004271938954392044 0.004003527539254969 0.002410245492654918 -0.0005749448749534773 -0.005611611244165853 0.001122641251960494 
-0.00900739234641759 0.007852089927425168 0.0008635098559946262 -0.0007117151781377913 -0.005491380884096226 -0.0003052331454863021 
-0.02139096407863167 0.003160279752978035 -0.004154079761317598 0.0009551045466080207 0.003100633797098239 0.009850608075752736 
-0.02573323761807893 0.03452458454401481 0.002237124758438078 -0.02061081896284955 -0.02047993956781862 0.003163265314647524 
-0.01163680036866112 0.004266149486957459 0.003312448838416698 -0.001245300829800501 -0.01113600150755554 0.00596097370582701 
-0.01345640091563513 -0.004628339282376851 0.01499523703588198 -0.001617087602039931 -0.01547198415014454 0.007026640804222293 
-0.04862022129765568 -0.02158478565721873 0.02210690052009193 -0.001819732497694177 0.008164577914192799 0.01392226971279445 
-0.02015195939533712 -0.02720730993481759 -0.004973196077164501 -0.01643488500543787 0.01720863138894595 0.02509165496999372 
-0.01972813065184965 0.002223013670419403 -0.002528058038616444 -0.002782908206747632 0.008635208406608133 0.008228739973136215 
-0.007378136166935612 0.01203595091200246 0.002594539496085523 -0.009339456344492859 -0.004414302003607158 0.001174490531270771 
0.01641123499198902 0.01282424303980325 0.0215152435565271 -0.028833708304058 -0.0222834677132036 -0.01017789107400698 
-0.008801346125998123 -0.001451266248752851 0.01089193591189032 -0.01297017367508473 -0.009904178943542018 0.006058177196147666 
-0.005950144161796703 0.008932081107108294 0.001255630085408508 -0.004447472798864309 -0.009044082411223404 -0.005482902930936446 
-0.008206421735995378 -0.004805956692514084 0.005265301910976526 -0.001701272897573971 -0.008371788225838211 0.007153776932226078 
0.09087066484220907 -0.004102180364853708 0.01229349922246296 -0.02281145071056383 -0.04317789388090211 -0.0434229372721301 
0.0125351285215905 -0.002138807264232748 -0.03555102124752187 -0.002372686976544864 0.06754912176322866 -0.007508835101008156 
-0.02712697810218789 -0.0003807304240848518 -0.03161907648211772 -0.0009332022668909377 0.055008945020373 0.01438574582646686 
-0.01166946657584666 -0.003056040481269797 -0.02491966964541294 -0.0002824172112623648 0.00918025595417332 0.02263476822612175 
0.02903371433555759 -0.02090924891584593 -0.02349428482647983 -0.002344134847855438 0.02469379127155331 -0.01124027010289889 
-0.0408597220508616 -0.01230292779372219 -0.009395021471761935 -0.01055113769483108 0.0342137204407898 0.01002988420863384 
-0.04856228902987307 -0.001926601032972668 -0.004981683001937582 -0.0004986763912204637 -0.002743434389050462 0.02984237139652729 
-0.02315585952888934 -0.0009994442342625932 0.02934532574764934 -0.004795680335680848 -0.03155314997317312 0.01601484931381213 
-0.02484752312041287 0.007433451892530338 0.02550522870282239 -0.00859705571187668 -0.02925712027305312 0.01175796110616817 
0.02707379303553707 -0.00676371018180269 -0.01099280868096806 -0.0124651775178723 0.009986610120606412 -0.02007954102105911 
-0.01104301915457115 -0.01099307592124894 -0.01316651537982132 -0.01061516985427378 0.0332025404874779 0.008554224512841645 
-0.01983339778296088 0.001975488166661091 -0.02143665068265698 -0.01610896527578916 0.01210715958439956 0.04301419619699605 
0.03944159666349379 0.005229209001832894 0.01818568308079815 -0.04354891540069358 -0.002681483351059285 -0.03058813580615799 
-0.01444920866458569 -0.002292537920332958 -0.007674570342573937 -0.0161236380614194 0.003218269551634423 0.01306992144973454 
-0.03134283378258178 0.01406997845539598 -0.00392957104709222 -0.007000649476272653 -0.004207080042696132 0.01409423588653129 
-0.03012827688559161 -0.01448021846844314 0.0135522810065207 -0.003453866135453546 0.008577490119413811 0.01632151618887374 
-0.03048820950095453 0.01208470122367179 0.0004884129481168125 -0.009493858532607886 0.04066686997836075 0.00404534589328793 
-0.01177900123072402 0.01095891869630754 0.02001933530960127 -0.008141829963462875 -0.02409903925408473 -0.007668513211556608 
-0.02825061513966841 -6.623476787684767e-05 0.01797437919234451 -0.002167422611486371 -0.01302767490918875 0.01252086883098135 
-0.03756667156383376 0.01377090380836371 0.001504061435882683 0.0001434554224622262 -0.01892082539269432 0.01774608479218448 
-0.01304366438036737 0.01228604527225079 -0.02250184732289395 -0.0009194898227354663 0.007530876832321756 0.007606736869267636 
0.04782185066205761 -0.03467977868527064 0.001481818968774553 -0.001715371372567068 0.001869904930130162 -0.03212357409787714 
0.001276094999184969 -0.01109969558619213 -0.02451279373002766 -0.001270342545916878 0.000780832027375023 0.02521418985908895 
-0.02244158549595032 0.001324859038164965 -0.03028687222978426 0.001138739026443089 0.04603056716165447 0.008767282977066471 
-0.001208714358245571 -0.003906805320145017 -0.03587221813646802 -0.000175553365135234 0.06473290134592392 -0.0048676886558972 
-0.02881286841728251 0.001136551648615193 -0.01258596913379126 -0.009133097668305154 0.06013361156294501 0.004333047739356218 
-0.03671564528785979 -0.01086032708005559 0.03037528708309771 -0.020380475093027 -0.0005334705460812457 0.006948841355996158 
-0.02020732434933323 0.008791248437709157 -0.002001850207936507 -0.01467108653154234 0.003322412833949543 0.01191368839417528 
-0.005451416826569089 0.01638431887480092 0.01722619926946869 -0.03176189847583583 -0.02180542273433033 -0.001163314692808059 
-0.008732636514486676 0.009268539466677271 -0.00305382778254287 -0.03382203737204938 -0.0006048551008063433 0.01248084356367111 
-0.01810924943489428 -0.006055937245082918 -0.01737121055777677 -0.01212068117573386 0.005490899534840632 0.0366741662243628 
-0.004330964853533289 -0.02308679018249737 -0.009739541153593911 -0.005063619985675047 0.02586653696103981 0.01489944694966819 
0.03189360168234508 -0.004292188065031741 -0.01024271332035144 -0.008750187166648975 0.01982394468748695 -0.01650019639805992 
-0.02988289620778866 -0.002469459149960331 0.01857061730487625 -0.01050256819071445 -0.01626859966213571 0.01710303277525992 
-0.004867018620144887 -0.004389407846092703 0.007690648927015262 -0.002838553179757992 -0.004949147441202823 0.0006585244529291283 
-0.005194830321476107 0.02043691599887041 -0.001632864746071216 -0.00499087426641456 -0.01218921341252319 -0.0001625980844666132 
-0.004601115966833684 0.01294891099397151 -0.001703829623820355 -0.002038867747241277 -0.007078013948071376 0.001094340430982033 
-0.01442878206510878 0.031758739489523 0.001187530647974684 -0.02003941630908454 -0.02230926062187259 -0.002732880293921529 
-0.004395141686997237 0.004979133793954946 -0.001501112583180756 -0.0005952508249542013 -0.003511625818100087 0.0008174644612701855 
-0.004150841660880043 0.001006931370243392 0.0005583451248657538 0.0006524224308750068 -0.003206883199476588 0.0004750285388758727 
-0.04038769122268932 0.003183889175298566 0.004116613957690239 -0.001954235126190681 0.0127345641494601 0.011067876242474 
0.02123636397243447 -0.0157601151942159 -0.0192079533722449 -0.04100704237230547 0.03537498094536846 -0.002152290239488106 
-0.0102156978745521 0.004488604398534332 0.01023908059296308 -0.01240065390828539 -0.007585732506274001 -0.001712886963907683 
-0.01076683211792063 0.009848247323238801 0.01115250764039507 -0.01718565606048222 -0.008234462853701387 -0.004459501371708386 
0.0001366313065062754 -0.004687174708095929 0.04158172858094295 -0.02887009282575894 -0.02924665459977558 -0.001070831555889522 
-0.0124741072762754 0.04531375940874179 0.04574758527482498 -0.04137146139339674 -0.04599831603106103 -0.004080608991233176 
-0.01674112467247482 0.005732302118569138 0.007076176102748145 -0.009472917659202136 -0.0001503359583448901 0.009503615167576642 
-0.02286058366891023 -0.001015766026949684 0.004249007058218906 -0.004908700971358528 -0.008219838994508524 0.01978104696660534 
0.04737458033200392 -0.04328428291056671 -0.0002662072478567404 -0.0235581994645425 -0.03505226818649697 0.004921152012505266 
-0.02234340345293249 0.0378929852501651 -0.01826773186093746 -0.007261362200823056 -0.007544252196614065 -0.01486088003010606 
-4.389448081446187e-05 0.01891229708451269 -0.01144865174868182 -0.002689928896639641 -0.01345215009781914 0.002577725294907342 
-0.007518999806331761 0.02025421739087937 -0.01082283584711647 0.0002168790935744201 -0.01311389178014386 0.0008058745434612075 
0.009754265399688706 0.004509232886054836 -0.006110364716192878 -0.004753696785536895 -0.006692145537466388 -1.926987322718926e-05 
-0.02422452010004414 -0.03964669340203546 -0.04313254766307784 0.07498925461831284 -0.02019142352811722 0.008520900088193882 
-0.01079306637066858 -0.002485208962880221 0.02466446654551271 -0.01898968663627134 -0.01525034324345738 0.008172588097272868 
-0.01456041955749145 -0.01915326365057192 0.009030141626051249 0.003384146440196929 -0.01029577880032839 0.01604460081906697 
-0.06375801877845333 0.009269275447112707 0.00498902797377972 -0.009194773113887391 0.008699853209293255 0.02107959563011928 
0.0008068544701652603 -0.004732245634096886 -0.0290544221234366 -0.004897217428976274 0.0157364969121915 0.01719362556748232 
-0.009877677746113978 0.009294918935698547 -0.01023065612628727 0.00504028264081101 -0.01015192895587092 0.003064645081279728 
-0.01705790459706427 0.006680934158111583 -0.00564867863499284 -0.00375930903863254 -0.01214907826676646 0.01351595872650147 
-0.03841134892562807 0.05149554829892789 -0.01036961508145087 0.001864029985773413 -0.03329679198658421 -0.003419509812706064 
-0.01153238794750706 0.01835404850918299 0.01335376387217108 -0.03707565064964381 -0.00979712192851518 0.0007707914231533983 
-0.01554704043831924 0.004557740748169416 0.04621203976581375 -0.0362236476753802 -0.01943395108935411 -0.002180305423406609 
-0.01067393420383225 0.004607746981481758 0.01350666584599465 -0.006803681031153886 -0.02420194351061449 0.001722510801041382 
0.09718202527501989 0.01326858021638867 0.002131498933529471 -0.02776746436825556 -0.02398195472071061 -0.06943952202697183 
0.09196688151377441 0.01081683719144854 -0.04502634395051899 -0.01258740958215785 0.01128034794997469 -0.05123568489232092 
-0.01362753654590462 -0.002427822072839535 -0.04645379237239851 -0.007217362367325636 0.07086242459742141 0.01472051134335276 
0.01042179606407563 -0.01552504124440082 -0.04269352415947329 0.0001120137224313224 0.06561326189145378 0.008752925943781813 
0.02542170397119427 -0.03359141779926283 -0.03250343584489452 -0.002635718288861001 0.01488480425549706 0.02224368002580785 
-0.03211359065260772 -0.0355769553023258 -0.02566175628145576 -0.002330764220720848 -0.01352604866356626 0.04760896038450999 
-0.01665363433459568 -0.01397664543075882 0.003469848493198994 -0.007908029014950855 -0.01458155105029937 0.02979652902391233 
-0.01775132398185831 -0.01154931608978558 0.02580408690171476 -0.008716205677398994 -0.04036221514389774 0.02055914545956452 
-0.003895818486765569 0.01157487211083099 -0.02353492992069625 -0.01111588560608723 0.01240560324638636 -0.0009722271143270785 
0.0149107315341079 0.01647576447663852 -0.04421979493238563 -0.003891396200500407 0.03733122604504952 -0.02240395143127743 
0.00968513707530809 -0.005335322817957612 -0.0007992508153553598 -0.008964693776141825 -0.01231760303648912 -0.003742710746910678 
0.02476439305340087 -0.01416460194864812 -0.03333775059824457 -0.002397780845649151 0.02662366519565564 -0.01061800445161677 
-0.031930261651993 -0.01738451203693569 -0.04380192934333772 0.05185400168460244 0.03227277320372098 -0.01578561970919073 
-0.02820926961268463 -0.008864879357033929 -0.03433693420459823 0.007128293970397339 0.04816989751748679 0.01221876894784881 
-0.04792829093640127 -0.007491625880771348 -0.02457849653835144 0.00702563370294213 0.008955600963222319 0.04309862574659511 
-0.05081194089587288 -0.02150252111938129 0.004675882522168151 0.0001320925883105199 0.01535751631152707 0.02896678291520409 
0.01351686486265315 0.03833419404388308 -0.02445397782774771 -0.008331285397582423 -0.009903935352358936 -0.008211818890490238 
-0.01876608596243419 0.03171716123203539 -0.01708606519033836 -0.008165787834841712 0.007732074171728323 -0.003764960126886175 
-0.01230885168712618 0.00613036509876839 0.0176516236455034 -0.006157573482323991 -0.03418513020545656 0.01554645863496256 
-0.02890406906724114 0.001086544087943253 0.005257384269866021 -0.005138779794368815 -0.0212025982528859 0.03812082962964759 
-0.01899682585705451 -0.01804909133749798 -0.02294711295701035 -0.0001964691836050223 -0.009025616622080086 0.04154178329853873 
0.01379060336299065 -0.03402443799927293 -0.02088933797475319 -0.02381860963890249 -0.009264937860661723 0.01667058453318941 
0.000102394542276951 -0.02116110041658017 -0.0439055953787408 -0.0004036659448394173 0.07374221885627313 0.01031733122892315 
-0.01973639319581687 0.01444366298451288 -0.05688479166262454 -0.006147567476920569 0.08822625384731407 0.005753109263165339 
0.08732269496350388 -0.001312602880195146 -0.04974026038178351 -0.007203687050606453 0.0349059357335938 -0.06156933087347152 
0.01570040034123538 0.04520717934168389 -0.03122777920613079 0.0002061045703226819 -0.02072018870419994 -0.01123285655257888 
-0.04113597755122112 -0.007031475186820368 0.001895304404784001 0.0005811151500551046 -0.01361873484930101 0.0376945057059236 
-0.04435575878958353 -0.01172443983409328 -1.024086020777556e-05 -0.0150186494963291 0.002138399615791051 0.0469200943464772 
-0.0203494874149414 -0.00126653281503838 -0.05721697517410677 0.03800772788120684 0.01417268021956705 0.001563819005262725 
-0.01929362738256888 -0.01945474083143938 -0.0517707571462351 0.05029897994002126 0.02792162897499635 -0.01303016486762354 
0.01279538950640681 -0.0174199094259548 -0.03132010348739502 0.003818070357808547 0.005785853511214713 0.00615688211606394 
0.009403861787557598 -0.007591626665998684 -0.002467340211085679 -0.01333907914463901 -0.001962855608386885 0.01001396740758972 
-0.01214485148206377 0.01110136415088392 -0.04013798630478125 0.003049105143775324 0.05406610174985997 -0.008091490606960674 
-0.08425995570455462 0.02451604526350144 0.01805687865658683 -0.01078970164678082 -0.02185929139368823 0.03038652682982193 
-0.009988839692727626 -0.008505797330269502 0.03794754650026008 -0.01825333935064678 -0.01021017815872497 -0.008423880039835114 
-0.005517195560509876 -0.01413831059005336 0.04012990718379148 -0.01526580018576541 -0.01122119497007614 -0.003756076105598616 
-0.005691871389522028 0.008562121355376684 -0.002133706223103005 -0.002798739198207526 0.0004369433250211229 -0.0003486630301741843 
-0.0164909693484997 -0.04462966371889852 -0.04524226656747168 0.07255953681231277 -0.017056349148815 -0.001926760807957718 
-0.002540022261491939 0.01249174044901933 -0.0119776254506663 0.001126875469230268 -0.00275905964662216 -0.002093392149474398 
-0.009197196611659379 0.01401516794127115 -0.008263566777697599 0.005445043154098537 -0.0048110911947443 0.003172366080691135 
-0.0880634232390192 0.07021688280958063 -0.002173000278700444 -0.025706130157318 0.01614921346580358 0.003014475084141377 
0.07113724597145489 -0.007739492609028661 -0.03240788596884953 -0.03367611920725477 -0.02280956814155079 -0.008594719651877409 
-0.02016132180367249 0.008054615097020044 0.03648134734079497 -0.003118161600133201 -0.03247433941999171 0.008152393787374158 
-0.01920775994364594 -0.00728249572225143 0.08822932186522338 -0.06849642648608564 -0.02612900046119787 -0.007867513104510048 
-0.01399315144481274 0.02053389928492895 0.01061318056499506 -0.02438140340507045 -0.02074714971921059 0.001630939359452828 
-0.02238715988815648 0.004286549328774797 0.0162136389390511 0.0006139753744895753 -0.01573421977046368 -0.01185822978309008 
-0.008655139555171627 0.01905876813974759 0.007599184494550697 -0.007327478130161469 -0.01659061977942579 -0.003118159436078508 
-0.01138050176988837 0.0168876153508884 -0.006787582348940617 -0.0004742249564157133 -0.01479382678930944 0.004059954661876274 
0.0566747515774198 0.01985173676113997 -0.03419904800356577 -0.02569007909795873 -0.03247375810322146 -0.009250805525846201 
-0.004613824440843532 0.0468461443186156 -0.02533694922959832 0.00114033391166869 -0.01608283948860565 -0.03018615011225318 
0.007782185029751522 0.02259149137318117 -0.02595591058999641 0.002455682138624437 -0.005155514756542947 -0.00597740687920132 
0.0001134023759803964 0.007469702694461752 -0.02846932927687808 0.0250590978534816 -0.008773334646612898 -0.004761165378349867 
-0.0008862647281168471 0.01293794074650648 -0.006798641585459077 -0.0004515950909136963 -0.008991237051669987 0.0006716793534009353 
-0.0220575999181126 -0.01582813182055665 0.0002702773653792718 0.02657450920849294 -0.0142185952199462 0.0114240747045113 
-0.0130159143988224 -0.03036854864985058 0.04605315396345394 -0.02519638182159709 -0.01467553024254977 0.01066125891819946 
-0.0321713571841042 0.006002891070604662 -0.009019134322980071 0.02420990114223209 -0.01285040482355879 0.007305129053491287 
-0.03114447928955305 0.006098030941801669 -0.0153859579582527 -0.009409279595544304 -0.007238189892253183 -0.002077299613664882 
0.01964933404420817 -0.007404825372485505 -0.04529595740662426 0.03757942380946688 -0.003655393500145653 -0.007355760374682526 
-0.003018171731736935 0.04482981212061436 -0.03587385676851381 0.001177910711475563 -0.02148480887255758 0.002719571836508569 
-0.005569425885945523 -0.0007925414160485335 -0.03089713866265503 0.02362584120963059 -0.008368242831129691 0.005033377616059354 
-0.03108010810568009 -0.03532158329983326 -0.003046190022162529 0.04924724706941187 -0.006862386017240816 0.009750831895040947 
-0.015420114410819 -0.005310261985583997 0.005289051108196377 0.003193539629973097 0.004824189881036262 -0.006075906700068386 
-0.01584194355929284 0.002317814627444839 0.03715067423898809 -0.01279657634012123 -0.03314464930066494 0.003512239819201399 
-0.01062428386688924 0.01196344452938085 0.003885624400533933 -0.002660958010637021 -0.01609083799415761 -0.002238074385893007 
0.04205652983355954 -0.01138371237321876 0.001220923618320757 -0.003257440483306805 -0.02939657597342472 -0.02793708484105384 
-0.006096087836370541 0.01528635446226565 -0.06694436381047747 -0.00901271592107219 0.05100407374522448 0.004950994379193533 
-0.04690774524671462 -0.007203790054632789 -0.009341810615375812 -0.004400535569102301 0.007663287487436665 0.04683608998840028 
0.005784290969218775 0.002537304052023704 -0.05348559714067417 0.02485121008851463 -0.004166244613610891 0.01671828554464153 
0.06922842284894122 0.008287399906517419 -0.06552248050235064 0.02841421790562447 -0.01575126166547447 -0.01547800226999171 
0.02955622844165517 -0.04424884813314933 -0.04031462532583654 0.03532949670235115 0.007718545755846031 0.009307615276167379 
-0.002166601322727746 -0.05324754879097756 0.01941016947767172 0.01261033024327833 -0.004419531861385734 0.01445539518739211 
-0.00807643377589568 -0.01530586883866169 0.02113421437631376 -0.009713845576264122 0.01085258505246497 -0.008168809734703799 
0.01831959930298359 0.002355124963605848 -0.03050634608971796 -0.01525658301436801 0.05453370235733905 -0.03571787926357208 
-0.009764054921394269 0.002092040306660623 -0.01099685788875382 -0.01473533474509181 0.07698951198260118 -0.04869263518483535 
-0.02397820185776504 0.001750933123903795 -0.02871162735969675 -0.01550237727634365 0.03323473399192329 0.003867714288870699 
-0.02005477438847296 -0.008224580043884825 -0.05898930016710022 0.03942753945513343 0.008030641763672223 0.01900549212868294 
0.03867716513769996 -0.0007050200970891794 -0.02203149646248434 -0.006924711939815136 -0.004096112374434119 -0.01676095689342864 
0.06331173603768452 -0.03223980100692712 -0.0460471415485477 0.03890629243082629 -0.01846060996946599 -0.03004970866038034 
-0.001913714820941658 -0.06231469068999241 0.04249144773313093 -0.01586486259707292 -0.008837821826318809 0.01504497097352256 
-0.03645688839806958 -0.04867919094462627 0.01717362087711424 0.006289671100448149 0.01885161499777544 0.03025164086174753 
-0.03336797619284247 0.02216570874936626 -0.02772105072416558 -0.02258617506682856 0.02119183205940962 0.01951104344155134 
-0.001704743660131889 0.01661466451925383 -0.02270094578879074 -0.01184997729408467 0.05393956608834193 -0.0419347050158868 
-0.008368888222720638 -0.02215897269898867 0.01507857626799269 -0.001506479582072938 0.02194096638440151 -0.008984302327923166 
-0.006708789597907952 -0.026731539945454 0.04619056177476009 -0.02569102348179799 -0.01548195831611734 0.006699591947544366 
0.02648985127937141 -0.04735946588673987 -0.05285364175720099 0.05873962877934386 -0.0102512560710147 0.01697667910077453 
0.06123216036471767 0.005032753535761851 -0.06911300224705304 0.02735832242245181 -0.0174682707371926 -0.01281376363280283 
0.0008339185613273406 -0.01057734116401306 -0.07125368134064893 0.04215630022899973 0.01150363942137167 0.01555839211781291 
-0.01665168922280655 -0.006457459613500038 -0.02907614505838424 0.005376788608735654 0.007928788576092137 0.03257246030170107 
0.009068655873105255 0.01300524785659361 -0.06499963325094658 -0.01456947586792036 0.03468283917579817 0.005375455774758596 
-0.006478182024280348 0.02416076851468042 -0.03619921738630778 -0.01281242049894986 0.005131727352253231 0.01401127732076927 
-0.03618660202723691 -0.01159955050205883 0.005560846201860725 0.004027778644040699 0.003009985037672353 0.02781842043543367 
-0.01029049192766592 -0.04068180441779543 0.04514454001793718 -0.03467389472375815 -0.01013230041969226 0.0089793524671299 
0.04012598891662317 -0.0105169431150634 -0.03118190011918372 0.02662451669906793 -0.02099617929345541 -0.02939153864856184 
0.03797106795753392 0.01005545522429894 -0.05753103683910867 0.02467073402097253 0.01166200120440198 -0.03382588490095213 
-0.01837170239334691 -0.03029723961324757 -0.04041742145973948 0.02613672853435186 0.01509420376751187 0.01267948384891194 
-0.01686789610716183 0.002142864320234143 -0.03109409285815674 -0.01235481150730189 0.04790359579993041 0.01215789063727781 
-0.02229876929016077 0.03137895599181262 -0.05636027972617307 -0.00443393966322587 0.07617736085985605 -0.02264073148905726 
-0.07055419230513867 0.04386014865274785 -0.006163885201921695 -0.01186575502389946 -0.03434883480658768 0.0341222008359419 
-0.01083742426010221 0.004935694805737049 0.005239904188982398 0.002350488508729779 -0.00909795765346161 -0.006862611844573647 
-0.01286166333541709 -0.04195587694588459 0.1029484802536439 -0.06158386843959355 -0.03334740562417123 -0.005842554053998496 
-0.004849659528671592 0.002322581243038112 0.001811786461308751 -0.001097574962576943 -0.005302519908770648 -3.203527107080738e-05 
-0.003901916541416319 0.005227737849153261 -0.03279046355984128 0.03272982273671259 -0.002143932754354098 0.0003477758451240852 
0.00664259420743574 0.01360690475859722 -0.0235178933698923 0.009812666954178241 -0.005307335880733236 -0.005568911467225227 
-0.007700380725246459 0.03496237115839628 -0.01905664028037364 -0.006765119326241281 -0.007958040105194844 -9.479052927912319e-05 
-0.01931040570511858 0.09044147939644287 -0.04128788471579885 -0.02320783565339385 0.01022452377536377 -0.05469883350323985 
0.04957362421116931 -0.061782944004161 -0.03655581357872206 -0.002369198472270545 -0.003629883679203383 0.02758396433037645 
-0.009399534798581022 0.01387623099072306 0.004339662630339232 0.00430489674731667 -0.01563925600214822 -0.001557658022935454 
-0.01667112266297049 -0.01485067714055143 0.07123189931241219 -0.04160242244139985 -0.03763644098220173 0.0106018015766116 
-0.01192345980648899 -0.03477009386138179 0.01271139042127782 0.02042865348258706 0.003961847004681266 -0.006029078845048385 
-0.01105858039216463 -0.01318807003729257 -0.01458454302553568 0.02615944325015596 -0.004358076540235463 -0.001158263244184286 
-0.009706952014205428 -0.003804907313716622 -0.05077391682847382 0.05717293550691582 -0.008133279014861345 0.0001268208464323323 
-0.009231725797587428 0.03792893237743643 -0.03587267465740011 0.007322916668732407 -0.0129973496664229 0.0005535577903980703 
0.05371968932289255 -0.01962920058086846 -0.001088404430597878 0.005658787360111044 -0.03174094193164214 -0.02585066987028964 
-0.009144740404691364 0.03690989719335946 -0.02610368475493588 -0.001387215937352508 -0.01170460530185188 -0.02110424160359495 
0.01425032580385471 0.01114019254214145 -0.01293904083454867 -0.003337390403555842 7.668216568495308e-05 -0.005790240594030466 
-0.02007980669575915 0.005771670177796084 -0.02310746921986837 0.0322154377898891 -0.004040860187033332 0.00282500906156994 
-0.01107063711508046 0.0004930306992478094 0.002403175171299133 0.001399249961324158 -0.005248314185714551 0.002323735158644543 
-0.02571400714902405 -0.02231461757463123 -0.002779177034821795 0.04330117668357802 -0.01087083387897309 0.002040294465891853 
-0.01554180344040003 -0.01085048592309623 0.01373910674926303 -0.005193793268433239 -0.006141076876219427 0.009880449063077302 
-0.03215072374530348 0.02573929915056856 -0.01681195025593719 0.003700569706275368 -0.003927174440226821 0.01214451306796358 
-0.01840398261101444 0.03446966620817628 -0.03666854986926159 -0.01174133685216494 -0.01631032641398902 0.003272580908819728 
0.03500903619572504 0.03661321347405107 -0.03122956092839688 -0.0298039443128138 -0.003001041644347929 -0.00945440459514489 
0.02188662981968825 0.01633542058004005 -0.01448255257653065 0.005134011378201327 -0.02652838395582042 -0.007961029950530224 
-0.001442497540136726 0.001588946811786734 -0.02489244025608342 0.01920487873255426 -0.01795056379566964 0.00410465303599757 
-0.02569239417375532 -0.02089520116260967 -0.01700975266068192 0.05185779501174702 -0.01392978452901717 0.006862666915123431 
-0.02775937960549016 -0.02355776308553888 0.01388200056815889 0.02600620909052608 -0.00907738245134353 -0.0004173811439140332 
-0.0160822863472438 -0.005871221544893943 0.01309417979181324 0.01932995085480734 -0.01948658769671311 -0.004124003858396868 
0.003811074209767755 0.02341504187160029 -0.01154216251425648 0.001092900587878926 -0.005261250390139325 -0.02109617572630708 
0.01354107172598981 -0.006539431852403786 0.007831269453881552 0.005732794318941256 -0.009464227239228871 -0.04480697617848842 
0.03937794061550491 0.001671201479921353 -0.09202521963434764 0.001507831633689518 0.03588378107848751 0.005871599224202683 
-0.02430162702727454 0.04826819797200869 -0.02951794561777853 0.01476133316409979 -0.02531694265708763 0.007474590356043636 
-0.03653474472384264 0.04620507079075555 0.003526355226865083 -0.01605293659422598 -0.04038984973613534 -0.001803336437973112 
-0.01231249234309777 0.05568950465375575 -0.06749884656793945 -0.00186738083716176 -0.007593549414108681 -0.00642977249682016 
-0.02824052360627115 0.0221044889551985 -0.01910677664198679 -0.01936985436433273 0.03075205273773398 -0.00539488480951384 
-0.04165377300865825 -0.02068814997721754 0.02816436786660051 -0.03105236427507488 0.02420206575323331 0.01687746497225968 
-0.06198405166202363 0.004715674009707788 -0.00968039203716752 -0.001946711327338699 0.04862828024599233 0.01434261294619184 
0.005395126621669086 -0.008444217949811669 -0.04571400057312246 -0.005173962215963332 0.06301713382385217 -0.007010247893466216 
0.06149377763758346 -0.02430233706638779 -0.02116737788971468 0.004958712176654354 -0.005272206158078527 -0.03535763377085135 
-0.01916147846147144 0.008771941790099784 -0.03765487559795277 0.02634565190232017 0.0002731483011002131 0.002168089351960294 
-0.02044108617733634 -0.01138557126953459 -0.01305631314416175 0.003842836835650862 -0.008740736344962877 -0.003700959478959192 
-0.009819524105419272 0.01904714014228429 -0.06999240193166774 0.04669793234435216 -0.01508214286074765 -0.008916730834095631 
0.007408160419373318 0.0009416244983871712 -0.04462408234062411 0.02736615778162322 -0.006662938987489741 -0.01249011330821033 
-0.03538193717833733 -0.03652452122627326 0.0004250622209509085 0.01747751102058425 0.001194101847262193 0.02818219314295272 
-0.0597097278079139 -0.001168821282384551 0.01485716523640476 -0.004123151275731347 -0.002907312257895281 0.02920018949349067 
-0.01492788661549976 0.01710399733789844 -0.05924160294524341 -0.009241440764065301 0.04428094383251406 0.02106945134517368 
0.003670338795113698 -0.00837236209308382 -0.02497801922235389 0.002332322964726284 0.03423446191211509 -0.0247142886374982 
-0.06174949918339519 0.006870734570143801 -0.006380962066097166 -0.005715775188623109 0.04316655375612263 0.01378527633363065 
-0.06088941031554282 -0.004608509487117892 0.04965075383973275 -0.05719446773640439 0.01940159216808057 0.01337181287001562 
-0.015003085604889 0.0396248954442851 -0.06219306226620564 -0.001922745524135086 0.0346699663288912 -0.01735008283538241 
0.006633998546840375 0.0498302865212534 -0.04553783820614842 -0.01401101645231427 -0.009447437259582579 -0.02494083079821103 
-0.01112193381969878 0.04173438954103574 -0.02370642077578404 -0.002496987260804234 -0.03458208207830983 -0.009034029427372362 
-0.001196335334301203 0.03621186684828439 -0.0247427780165581 0.006727545236818262 -0.03308912778110108 0.002299190988738034 
0.03886904268715358 0.003842046519828844 -0.08610320840452361 -0.006478172976377551 0.02863490945182409 0.01576045586983879 
-0.009308092605106176 0.02146929036042508 -0.0600062774763112 -0.01149187774387155 0.03455332254977166 0.01950990071359538 
-0.05646961406340187 0.0177841448360406 0.02225602786733301 -0.006602453665456328 -0.006924704617822693 0.01852213393412344 
-0.06241291745009656 -0.02655380882513948 0.03396783562792145 -0.02580087247541397 0.01207690638152806 0.03354483461796415 
-0.00337560708239615 0.004522274178462718 -0.07687065661174179 0.06311297529640925 -0.01181768569238926 -0.003412743872864585 
-0.01351966655485989 0.004562884216665915 -0.07727715399949295 0.07018998937616075 -0.01073834407663871 -0.005528488161576025 
-0.02250107983211121 -0.01160209318464105 -0.03655840400341201 0.0357121329281169 -0.01390698096405264 0.004471245689142673 
-0.007065709942021636 0.02509645367496825 -0.01607437333649644 -0.01134914847985399 -0.01265358308353257 0.01021969103137613 
0.04236084556861811 -0.002691709210941002 -0.03666962292754107 -0.005072495437086017 0.008132139817463725 -0.01723968208117241 
-0.06546135923382032 0.07976420345700798 -0.03024816961324886 -0.01921927243657628 -0.00631237599375296 0.002789164133058927 
-0.006140636657965358 0.007215413428348391 -0.01318652309515217 0.01248469933852919 -0.008189734829534015 -0.008750691642590267 
-0.00880030996309712 -0.02924308203759554 0.01834267668186349 0.01007477325305572 -0.01822922060580824 -0.007077617179141317 
-0.007749546373779867 0.001412269425701824 -0.03386485418763768 0.04171119689026686 -0.008049525223650145 -0.004684028266978933 
-0.01293658561869804 -0.0139953227057462 0.01903615062331072 0.009909992761693425 -0.01686159041075545 -0.001591411083670684 
0.001816818677411129 0.01409651850385809 -0.01727834202887702 0.007851914094673968 -0.008116703456434688 -0.004205122023701175 
0.00670387479998071 0.0001217755736577075 -0.008482725872978119 0.004067520481775689 0.00373246690310393 -0.006212657620513311 
-0.02828159905791863 0.09092825896814978 -0.05201948685255899 -0.003821944222024343 0.02725290577089041 -0.05821788415146254 
0.08065879108734307 -0.07006037514489563 -0.0400126207511439 -0.007552728423364235 -0.0452845071875697 0.03497288350401725 
0.01442991228387257 0.01934597742314351 -0.00918051183501647 0.004903827983452957 -0.02527616128547406 -0.01104491370580514 
0.0006714517555107414 -0.003138912976474762 -0.0148828134026829 0.02528892028695824 -0.01610016969576329 -0.004845816875619058 
-0.01060382331462207 -0.03088120708481329 0.0025774701507123 0.03320827869152237 -0.007449901665192001 -0.002626205687320074 
-0.01873113502679121 0.004989503097408057 -0.02246544728421678 0.02604920612470198 -0.01296771653000865 0.001020238085032831 
-0.005183683325213069 -0.004461954877215078 -0.03939643804569284 0.03559373451558717 -0.01638053603130287 -0.0006741070903057985 
0.009689940954232416 0.04272517059284873 -0.03236745890496253 -0.00184798897768654 -0.01844101793485245 -0.008048036072097992 
0.05441296264490581 -0.00995099677400974 0.04670634456494908 -0.05078191255031966 -0.05372993742264947 -0.009255699893526755 
-0.001779359932257752 0.04704974186489785 -0.01554345574181829 -0.01259111770295993 -0.003526015949440864 -0.02849268240569701 
0.00372644350954428 0.00486307338291808 -0.0008201868437874686 0.004421456198473136 -0.002578029568245775 -0.003435310494104248 
-0.007401185966802911 -0.01397578796323691 0.01852468263425521 0.009419259899683891 -0.02758739425397942 0.001274801075806909 
-0.0117686869905158 -0.01012415632601768 0.006933980808826587 0.002219932815434931 -0.01638829485088081 0.001485265332734807 
-0.01285428277047183 -0.03857231406116451 -0.04133619245986226 0.07359696695575699 -0.01843203351919793 0.000105342395320249 
-0.01529788705102313 -0.01800066969306247 -0.01160420878061432 0.02407352800389161 -0.009979828684228411 0.009444556319951034 
-0.0117327282166689 0.04515086800817684 -0.01030408821670593 -0.03237480502462339 -0.01518069926072137 0.005735558547630111 
-0.04459806997741209 0.09550462690824001 -0.006111153524884079 -0.07041567934082542 -0.03822471265547298 0.02257584688567067 
0.05481800603536398 0.00171978972172848 -0.0175389976806848 -0.04776294411432975 -0.03182483137574336 0.01522902830441123 
0.01056301790145005 -0.0119114968106912 0.007511259101281861 -0.001771902643365002 -0.01856246936416962 -0.007780141933608921 
-0.01412338743018723 -0.02196393221391416 -0.01685471335664094 0.02567310767447868 -0.005174426288222297 -0.002682215271145968 
-0.01453032970367668 -0.0158991439664109 0.006156855356491836 0.0125335804640735 -0.00901903922362793 0.005046230122709793 
-0.01032915782381064 -0.0179661745030157 0.01426600395136859 0.004581424913643532 -0.007888173521434495 0.005599294570692583 
0.001837891391867223 -0.009515259952295671 0.00126094393335593 0.007924270168771709 -0.002019091556518988 -0.005750586099151512 
0.008319529983709844 0.03079551729023893 -0.005628568891583873 -0.02225238299695323 -0.0074706883844559 -0.008313647236854481 
-0.004493839110147772 0.03243185378751341 0.002096016972047219 -0.03087493940236838 -0.0003588569670885957 -0.04222524424567368 
-0.03524244291621055 0.01657094013752507 -0.05353790338270632 -0.01654406386408266 0.05017383173803782 0.02705884698780952 
-0.02036671815319077 0.02735721890185491 0.005662159568295427 -0.009444562215132237 -0.03038032344001751 0.01609387702669481 
-1.093440459277778e-05 -0.008061328698013138 0.04952507652670718 -0.03085407656357368 -0.03919627599937345 -0.005196789990132748 
0.01450741590850308 0.01608533289454888 -0.06647365739794246 0.05372896376042902 -0.03820978750306157 -0.01132979985612559 
-0.01730238027792279 0.00868264905137511 -0.05655140407647389 0.05214893036361627 -0.02820783189642727 0.0001678988895830421 
-0.02548699156145237 0.03725713501883514 -0.008660189038434003 -0.01693846195089312 -0.001656917440309433 0.00504832507258038 
-0.02620297409656937 0.06257028602157724 -0.004301702832919763 -0.04512829487439144 0.003638373103480931 -0.00441076304461265 
0.009818513951141418 -0.01476571294613047 -0.02527293069887208 -0.02203366170844698 0.06263002692556435 -0.01410949397834871 
0.04223016085810452 -0.01918093501181596 -0.02217778518229859 -0.01254103069560057 0.03781517356355665 -0.03338954678626143 
0.003768197358051994 -0.01137721627670988 0.01276082137132759 -0.006031731851705018 -0.004527320813326343 -0.003656471021294486 
-0.0090804967425552 -0.01664633938199781 0.01390871909923837 -0.004345838274052395 0.005504436025500045 -0.01254400919388402 
-0.02480160597745435 -0.0005135970695987075 -0.04177270102800179 0.04171019158038877 -0.001902766229224289 0.009711684172157845 
-0.0309056491050557 0.03840107787388743 -0.04631496621876997 0.01591614195771797 -0.01367054656488625 0.0006131207504443761 
-0.0528927741382413 0.0313007377027632 -0.003694724120037135 -0.002442104587918669 -0.009514146362420149 0.01126676720651961 
-0.03433799165293332 0.03696273676351564 -5.668910965659369e-05 -0.03388402937174933 0.02961519514389076 0.0005328888717354087 
0.02797646160284867 0.03185622473343099 -0.0765472412445462 -0.03947089162500252 0.03998092935808809 0.002349538791129905 
0.02107263583039573 0.001965211602136725 -0.01482562430383155 -0.02737885048158879 0.04249160188809679 -0.02488889687979614 
-0.0124714422735717 0.0501726442631904 -0.003812395679515081 -0.04285780342082079 0.003887999931454101 -0.01097886865942976 
-0.02245769788272248 0.0434313408243846 0.006185241669070282 -0.04986205436945582 -0.01983080099320991 0.004070211709485002 
-0.02471644121158722 0.02016918926949176 -0.08892527288410987 0.08265680280247996 -0.03938640612733 0.005189793254612809 
0.02028999931546514 0.01852215576212048 -0.03785832061242953 0.007758479446882552 -0.04158108141127771 -0.004831849487714532 
-0.007554890299065082 -0.006940168186651346 0.01345665145307613 -0.004848419891901353 -0.03724078030048433 0.01863549649683555 
-0.01352107697696785 0.02081369976041495 -0.0005870037213105742 0.0008167616671785031 -0.0376397528031609 0.02585493219556733 
-0.005441490764350195 0.01125609478198835 -0.05815301261728713 -0.0272586518803792 0.04384449742679924 0.01620875892839678 
0.04169694065703555 0.03901695742488682 -0.06932011942947539 -0.04029994656826451 0.03819793542836136 -0.0237695669193315 
-0.02761201771935045 0.03584845620764417 0.001200097190715054 -0.01244154958466491 0.03154679962791714 -0.01206963322219956 
-0.03386296047391246 0.04117576782335265 0.01313859486745452 -0.0254117864772546 -0.02358253486686364 -0.008530597126995977 
-0.01984057325947327 0.02893856021234844 -0.06702069384237286 0.03769740923428664 -0.000331075690824834 -0.005851614396948527 
-0.01888386706239291 -0.004358835777209444 -0.01233400874021493 0.01260229316760924 -0.008252653968476754 0.008342682999930243 
-0.02204113335306686 -0.02600431549605984 -0.006941004130745863 0.03203208138262012 -0.005716677527796568 0.002906923447805005 
0.02232826061464448 -0.003094219196589954 0.02814663212580468 -0.01546565245079341 -0.0260737605035042 -0.01630797167543556 
0.05334346370225437 -0.008812161338548169 -0.03185898104474022 -0.03232428327455864 0.04107964503402528 -0.03205819504729553 
-0.06800737603003316 0.09718313233781803 0.01287953779456465 -0.06254154402391086 0.006735849747273906 0.00107511671530651 
-0.003114143659934848 0.03328983158789737 -0.008371618327040708 -0.01125670036173886 -0.01378877824240351 -0.004098167629259283 
-0.003734020719430924 -0.008290200817677975 -0.02767580808646319 0.0455046501871773 -0.01299336397664022 -0.002576087762944152 
0.007833496382512139 -0.02742875067193764 -0.0593134430004303 0.08273102745158853 -0.02156902927808275 -0.01805938776454773 
3.405262634409577e-05 0.001471637471090766 0.02613143793812276 -0.0201922312061563 -0.01879778241250247 -0.01473043601943959 
-0.006987911739062966 0.002007722412752206 0.02039753430283204 -0.01439226326970385 -0.01894256395644758 0.00360798443686469 
0.0005245634318423295 0.01370485532089563 0.00504602870863282 -0.006162684232864695 -0.01735644810589711 -0.002860733416200603 
0.04717414410271657 0.04694149163430614 -0.04861451538885195 -0.02731500867471982 -0.01358152338449332 -0.02838866742250703 
-0.002044613053910738 0.003050912714059529 -0.008479435121030266 -0.05337517674790894 -0.01676226604249343 0.02188886262493975 
0.01841557781374978 0.03227754439940649 -0.02529977151331067 0.000609048456164822 -0.01457509895380227 -0.006438083629584699 
0.005291740896093447 0.005071465193878117 -0.003041063724101275 -0.00884418061127815 0.005197467323047901 -0.002071219788425879 
0.004356268762312593 -0.02191861247765638 0.008656396647871815 0.01188039165086995 -0.005947501008517227 -0.007273438909155777 
-0.003287742109857224 -0.01097765324168834 0.00478321040716529 0.009563022214176235 -0.01139215802336294 -0.005667053570148232 
-0.01234083878784375 -0.02842358100674048 -0.01477845695359762 0.02945201116835142 -0.01062255292778148 0.000710015165996689 
0.007202040160027119 0.01461154936825334 0.004034786208344818 -0.008583297958930331 -0.01372305563190898 -0.01130329831477002 
0.08929673096338471 -0.03585920335412383 -0.01640572358034735 -0.01327026697453246 -0.05516101292968734 0.003006367425546894 
-0.009914088897132373 0.02279066808934515 0.008044900226315179 -0.009326992417564701 -0.007231691433749427 -0.01087827331590279 
-0.002272497466237008 0.01661566381755395 0.01168400678723481 -0.007368258965994195 -0.01623954414322005 -0.009104891440956317 
-0.002602193215257266 -0.02678863219741577 0.03391380589517626 0.008345302714123794 -0.02900217769054313 -0.005003966424799922 
-0.005667558845785077 -0.009126582418774508 -0.0276291934837946 0.03466289726767666 -0.01550054709386839 -0.01032017104514165 
-0.0271099114795187 -0.03357370532700701 0.03655224407202275 0.004943881910217948 -0.01252701515416204 -0.009699360128115727 
0.0123108214991159 0.005364655000448454 0.00532033803512594 -0.001937381398211943 -0.006070583314091934 -0.0167022114858077 
0.004875619254913947 0.0525953610356808 -0.004155273084116455 -0.0259262817575351 -0.01410227448717063 -0.01768596350949586 
0.01650593588717277 0.02205655292718802 -0.01414744067556794 -0.03871673815591892 -0.03905731515769718 0.0005480468819222481 
-0.01291262001875858 -0.003899561344048969 -0.02013475225687213 0.0003530114896127497 -0.001635273168421447 0.01553812378248523 
0.01153865247312422 -0.01699664161384491 0.003969859471318051 0.01380373866300781 -0.01972270097934418 -0.009727106676192322 
-0.005321649087950769 -0.02045153669354829 0.01141825203807345 0.001634039003257929 -0.01565764442218248 0.0001610181636640768 
-0.01020834984381984 -0.02025060094975192 -0.01420826535838132 0.03863341109654121 -0.01269755484956791 0.01154287921795449 
0.0114055061077862 -0.01959154293301191 0.007533845472914741 0.001421086409962977 -0.006805821264418867 0.005438817309132298 
0.0007798372896870545 0.007228152337968502 -0.006080120430678454 -0.0004394417769331602 -0.008309485828875602 0.002587760556955269 
0.00221963636790885 0.01643188495982736 0.001196362849562815 -0.01549716144967904 -0.01444802644958505 0.01171672171576015 
-0.02684250657283396 0.005207940323435819 -0.004556244735728095 0.006537032989101792 -0.01849153779313475 -0.01595508781160349 
-0.03825253356156055 -0.02638365498393563 -0.03832016081800916 -0.01383732933109408 0.0561346520775684 0.04634686597272971 
0.02131482600943266 -0.02795453357375677 0.03630079882391357 -0.02585314474768799 -0.01304913564077677 -0.01109296484439203 
0.02059985674148441 -0.02048121626289654 0.04502421052676418 -0.03845599511533015 -0.01382644826034635 -0.02590405653392583 
0.04505991722176245 -0.03290679277816306 -0.04708072077663909 0.0509989593869833 -0.01955050996757638 -0.02277018414579779 
0.03298287330647424 -0.04505188534772969 0.01070748614138986 0.007775855489611298 0.01103108421051927 -0.03329284500569738 
0.0254127162254124 0.00146161477521356 -0.01395410517769699 -0.01284889408412077 -0.0005867640038000614 0.005058548625537823 
0.00828590250577362 -0.0001621324342943536 0.02854392068433553 -0.01891089370870118 -0.02301733436638943 -0.006544739092992805 
-0.01572166321782078 0.01634404988853685 -0.03061513833845451 -0.01979122502132963 0.05579757584413119 0.00024565415162854 
-0.05293981380136107 0.01144399249337751 -0.03309989443925468 -0.01474233936916378 0.08162586153836479 0.003559235918416909 
-0.004963869417027289 0.005789540752367698 0.03317049460125951 -0.02853618355735407 -0.009021245099684884 -0.004595067543540888 
-0.01466844843326122 -0.001921196584055709 0.03775977304533634 -0.0195618050156441 -0.01827593546158952 0.004439441131991626 
0.02327948066972697 -0.02162862567205394 -0.03297350035291687 0.03932479906264912 0.001510772264310025 -0.008568588357619223 
0.03247736235318537 -0.007284114170069637 -0.03301741305805418 0.01764665977189579 0.004355207137219637 -0.01291571591199153 
0.03941144172064907 -0.008258699264345028 -0.02898012627694689 0.02782096903828844 -0.01378916049113846 -0.01107109481504762 
0.02732745299823812 0.04487608222653 -0.0131461905549638 -0.03846730669434792 0.0006176608056290879 -0.001867978351209137 
0.0005215649573464588 0.01496320231722397 -0.0366368659522643 -0.0206184417746659 0.0295496897959913 0.00225275945714701 
0.03103809665941717 -0.003373635287295399 -0.008499755096056725 -0.02083852891801957 0.03828266440259025 -0.0290793860122486 
0.009831017665280346 0.0005004958500471708 0.01721936935080145 -0.01776104863538066 -0.01308498271544583 -0.009609411821561753 
-0.0005113465964935058 -0.015895441840484 0.001173997936853899 0.008509604139896265 -0.009526975338327977 0.002380931026201092 
0.02289093038503297 -0.005216800226869103 -0.02261933206123464 0.003876046719281097 0.02402637312257934 -0.02389847806205064 
0.0302660011561508 -0.04542281317685082 -0.02364975867711947 0.03543100767256117 -0.01561670220350877 -0.01611688535512189 
0.02992016696148461 -0.02494817568052694 0.02571377199010246 -0.01633022402823256 -0.02272959980257108 -0.01454571520849238 
0.02852183410629748 -0.02906358786078119 0.04131946638215861 -0.02449798720483138 -0.0265746757552685 -0.01231787159015177 
-0.01886225812305109 -0.02220981550640915 -0.04486283891782539 -0.01749589418173674 0.04745889029026875 0.03226642322375971 
0.04584822155153868 0.01013964778588904 -0.01723644018066639 -0.03339223315691288 0.01703717438907253 -0.02942009739391789 
0.02589540855062993 0.02845358157173049 0.002301487876239385 -0.03007326827497517 0.001609905364387732 0.002795426841378536 
0.009684575350535709 -0.001813447383472139 -0.04945428405996359 0.02980065821615055 0.009535503838948658 0.01150013275688534 
0.02640713119916957 -0.009194295473378153 -0.02653524736334979 0.010881885018249 -0.00064027093301588 -0.002419253950469321 
-0.0005984680437818469 0.01092146440668765 -0.04340663372120505 0.02803910953876554 0.005371613304658571 0.0006470034944246921 
-0.01106262156376069 -0.004099337909805793 0.01681338554737209 0.006862888825410541 -0.01898279859281714 0.005895637355435361 
0.007462885757850074 0.01333613556138973 0.03339860330047516 -0.03466655537891795 -0.03276279866206278 -0.004169755741111911 
-0.0459336388904588 0.01132277720897057 -0.02510694724837307 -0.02927434876732047 0.05939042435286186 -0.002012453072760256 
-0.01759171087418861 0.02023383109559325 -0.008868837453092816 -0.0157026901302264 -0.02273427724214934 0.01863302933028117 
0.0007867514677404348 0.05018183668180591 -0.004482586796665213 -0.02838475854840038 -0.01399709159416125 -0.01981038732736021 
-0.002840807506514323 0.003027520662363661 0.0108999567628736 -0.001014732534087788 -0.01054092505976437 -0.007716760356711982 
0.006848868220306972 -0.01405623760941087 0.006754247401328991 0.01405516275812299 -0.0193982694469616 -0.01368126141662228 
-0.008037338041927418 -0.03758751586882295 0.009735926518778441 0.03610600059546154 -0.02234394975467868 -0.01400029251981966 
-0.006072733725013022 -0.024021822985261 0.03236295351714428 0.01218352657281715 -0.02491058363366056 -0.007605392920902185 
-0.002057422297604465 -0.001662319803102797 0.01061793274602798 0.003724983477797387 -0.01467107824381031 -0.01025374799947156 
0.03107478563661246 -0.0219951853705119 -0.02997955098067629 -0.007880985819324775 -0.06189277087314473 0.03202552084629903 
-0.0001644343007701097 0.0001144966474169274 -0.0090592162006118 -0.02055934809320635 0.03661419228798929 -0.01472137764900809 
0.0007611282838250364 0.01219938175618909 0.0002974444273867745 0.003674625957151015 -0.01591843473651527 -0.003067438517767422 
0.002722435317221965 0.02023159132391923 0.0006197374123464671 -0.0265454896150343 -0.007539205491837704 0.0007235239876978579 
-0.007841820009022492 0.01019273268278164 0.003330056129587159 -0.005364156179446707 -0.01040230317139971 0.004072232291740949 
-0.01613155642685278 0.02495994061698344 0.01577661578330336 -0.01568209448345724 -0.0163114465049801 -0.0002464909488761142 
-0.01707669893719018 -0.02941005755134156 0.02057603814231468 0.03398880330876786 -0.02175506071381723 -0.004627687988301822 
-0.006390312027059687 -0.005532978485012653 0.001433701661553625 0.007689217351026044 -0.01071356680463774 0.00132273732795912 
0.05756041460165494 -0.0111054692869082 -0.01426717719786462 0.002116770119598539 -0.02868904068715733 -0.02646741173109151 
0.001088129574434241 0.002209538510071197 0.002467668014564074 -0.004141386824616703 -0.01402618161848392 0.008663574776694716 
0.0009855261176821596 0.01000446296541994 0.02397266717145674 -0.01855110474640176 -0.02011388676260836 -0.001651041199893315 
-0.01237691671317992 -0.007347506980158577 0.02947937345315878 -0.01185291351779292 -0.02166274874352271 0.004553947744605033 
-0.006804802979937788 -0.003458227368569225 -0.01449908636462439 0.01459324809904088 -0.01840796817229419 0.005149392655122953 
-0.02255183522765028 0.02585248708261073 -0.01296044571154019 0.02271316699474985 -0.02438139940226244 -0.01290089874922777 
-0.0008135170703328357 0.01125719492202173 0.0004033097360257056 -0.008700854270124977 -0.006416069242491431 0.0006405011302239489 
-0.002600116307635479 0.05833047402254583 -0.0149317389875852 -0.02907724701775249 -0.02384568619924234 7.445385462338095e-05 
-0.02962976852554143 -0.01190698487120754 -0.01248356735883195 -0.02237249825859457 -0.02604517993621356 0.06175550149012877 
-0.03136956238123303 0.01439863187589138 -0.02041727513661573 -0.01485250418494458 0.02500454254483079 0.001578422028405379 
0.04494769957564271 -0.01069288383498876 0.02365511275846326 -0.01379769406597749 -0.02971573435768783 -0.02239001246420699 
0.01192014842403192 -0.004515613337819124 0.0236193156890863 -0.01950050945046992 -0.02124782919103933 -0.0128513078051824 
-0.01232030754427707 -0.03011140925027813 0.0002766063550302954 0.01540307638331517 -0.02304892658257979 -0.007170288650728964 
0.007900665123275372 0.01226702980744271 -0.0006215203290489587 -0.005079435483066644 -0.01013326076586526 -0.009065520598883067 
0.003041857893767467 0.009860142011638956 -0.00363231470464974 -0.001654105991874888 -0.008956656880484876 5.964438242228656e-06 
0.002484362447823202 0.008497231439605827 -0.002213211969958745 -0.0009990751422253702 -0.0109300925273172 2.474389479920952e-05 
-0.0002145908720386881 -0.02017916492907984 0.006996703610504753 -0.005776547269770288 -0.005547282841526528 -0.02047409865284444 
-0.006944815232965616 -0.008880508032830005 -0.04198359017774184 -0.02216598631864779 0.04447603836571681 0.01013661070671136 
0.01884648491714711 0.006549238394878466 0.01991502710470534 -0.01968608572447212 -0.05063313787817044 -0.005254547019296799 
0.0008587307863224954 -0.008682309185326524 -0.0001962008002631357 0.002085472677081025 -0.02495531808108173 0.006287920457456351 
0.02227628996155628 -0.01903225464980286 0.01311113606299651 -0.0125094200110606 -0.02304789689413493 -0.002192563802371553 
-0.01435465206632934 -0.0227259446578587 0.005427402592046589 0.02704260992692227 -0.03910164699719589 0.006763793179752751 
0.04452693834504345 0.005989852511918829 -0.003843464756057369 -0.02037530616018597 -0.02474116851524671 8.947540368868348e-05 
0.02379212150548814 0.04348400896412665 -0.003118760656815944 -0.02318403486312944 -0.03262924809925833 -0.008085364735426145 
0.002060989196105082 0.02871582461807183 -0.01420142883466741 -0.00957834828659631 -0.03930687754113129 0.01477061209336904 
-0.03895406706894716 0.006491584875597441 -0.05689834491109202 -0.01459057451663712 0.1329230516159989 -0.02106066928579298 
0.01563914666567982 -0.002606148089436733 0.02374308246938878 -0.007648413765646913 -0.03245499653365096 0.0005450541901066587 
0.01958647538223358 0.002989419335083599 0.001678387861821934 -0.001097988186355952 -0.02514347253093311 -0.009891784688557318 
0.0405281780450391 -0.04425579159276238 0.002580374761346585 0.009764749674059445 -0.03100906441437981 -0.02498910595663962 
0.05980588120149895 -0.007606927506460635 -0.01016985500301542 -0.005325714758891317 -0.0116680047546758 -0.01952244450830678 
0.0381718527940348 0.007688108017650756 0.002866145505273446 -0.007223666946073624 -0.03481514187158731 -0.01546746521481275 
0.0453573508310099 0.01692451993699988 -0.0121800866749038 -0.006609506687459352 -0.03433287262711918 -0.008706688492684326 
-0.01346447928955327 0.01316561197706399 -0.03054437228411735 -0.02069645153708755 0.07127547679452724 -0.002921347279797096 
0.008577271970740163 0.01960486270731424 -0.005652956845464946 -0.01391182061456957 0.001964169661001773 -0.009615991412394892 
0.01654981770646483 0.05864607183735322 -0.004926847530590578 -0.03736787557957192 -0.04112909138303877 -0.003264238009708445 
0.02645604720652538 0.004448550064500921 0.001257558705928072 -0.0121058902650827 -0.02532801738410586 0.004216448198511809 
0.00143966269113368 0.0003366957611101605 0.02175969616143468 -0.01823304950901784 -0.03344145686328789 0.004333304650662948 
2.028970265712653e-05 -0.01003289695652853 -0.01171290748242634 0.01422678947090167 -0.03165534694931822 0.003230585212665422 
-0.002029531239065791 0.008363746340194558 -0.001225992028829852 -0.01527397701084793 -0.01587783599652059 0.0147378576941085 
0.02011566992226094 0.001400179625877986 0.009802151013113375 -0.0119212347945588 -0.0432115463025611 0.003794323518570626 
-0.009833369199652893 -0.02567482913607932 -0.04617881305081747 -0.02104755823009423 0.03164172630957111 0.03380700446249042 
0.01449180607217083 0.01875851060013158 -0.04647895173523973 -0.01711854424644173 0.06780638396437449 -0.01826571430822229 
0.04941758468284825 0.01720612185111544 -0.02260539460705761 -0.003732366178905682 -0.02150397678946084 -0.01535369674006321 
0.04652787349972162 -0.000626738283341987 -0.01072594273931778 -0.004991473873137447 -0.02132763632497466 -0.008278890439190575 
0.05335033292456242 -0.06292706029807275 -0.01281902556129203 0.03713623481643817 -0.04190960041092406 -0.02246180520145721 
0.05002814900453482 -0.008339040022971313 -0.01466660816507046 0.001694936800143297 -0.006880945652240925 -0.0215934649088834 
0.03307746111488606 -0.01551542809248009 -0.001204221475551512 0.008357394385049842 -0.02779221788207186 -0.008236689112578207 
0.03724842040607933 -0.01524543489734429 0.02755141411852224 -0.009733285890585556 -0.03497062581186999 -0.007623292607324479 
-0.06046547911426891 0.009982922191945348 -0.05278330637566769 -0.01200821803242741 0.1118066334921952 -0.007540723581052453 
0.06002754185803556 -0.01036157938289059 -0.00752527168693327 -0.01417174694293948 -0.05872165093853696 0.01976742439648058 
-0.004275181748475974 0.03879851853543066 -0.01544914501775822 -0.009842982322082822 -0.01389101249800039 -0.01352134315272149 
-0.002109137235286182 0.004719776794014446 0.003006938766983003 -0.008698543059387815 -0.003700758699185195 -0.002880323218815576 
-0.01695825490972279 0.03234379854636551 -0.001240685350479496 -0.002406240455654986 -0.01988460519920467 -0.005533470284321066 
-0.02529337012201082 -0.01406547503920695 0.01360588201475968 0.01513944410625416 -0.0256982022932863 -0.008659335651729674 
-0.005811908301914232 -0.008461127168018927 0.01734021985882292 0.00308390398851251 -0.01807314567249374 -0.005494267546450216 
-0.009815947629826887 -0.001036919891046512 0.01412731888513367 -0.0007882459131290779 -0.02050727268560117 0.002197489645517962 
0.04111749798662499 -0.01670951197204413 -0.007136918111332878 -0.0171845553906075 -0.05425481748899249 0.03376964101898588 
-0.005078231831341822 0.002610855775314478 -0.02063609815345414 -0.04163202403424193 0.05458727099170985 -0.01365042375838816 
0.005145952834011542 0.007361878658520614 -0.0003596260987655456 -0.0001497791255962709 -0.008700407424277003 -0.005854503558960659 
0.01452477693027248 0.002003903616343531 -0.007142872853193449 -0.002935109361122858 -0.007214948249153116 -0.004163104367119136 
-0.01258241262912108 -0.01713880260353781 -0.03102415701756289 0.03779450129553594 -0.02557152344422104 -0.009213562196683251 
-0.006827758365460698 0.00963217772420747 -0.01323779392511851 0.006620791238311164 -0.01589824089630635 0.01114537804470859 
-0.0003980976040620245 -0.004617095132273128 0.01365771884732527 0.00619578981818094 -0.02145554931856084 -0.00280700277636086 
-0.002717969211028083 -3.82360759820626e-06 0.006697884907121597 -0.003476624202780866 -0.01076328213215557 -0.001731807857269099 
0.04150709511692472 -0.007028166971335486 -0.009566304900969323 0.005386070836283158 0.005232889476510262 -0.04866707523886504 
-0.006118666146807857 0.001035545023225983 0.002969930158070886 -0.001843063241287017 0.00157696449938796 0.004188475116139719 
-0.01185502853396734 -0.003989491594792717 0.0175556655144097 -0.008647928438056444 -0.007152558726285986 0.0003678255261248944 
-0.004022662661100858 -0.006561159797578609 0.02009193171864401 -0.01605757872865545 -0.006369386098454508 -0.006726303771423304 
-0.004578575002711574 -0.002037949646082492 0.007758051298288885 -0.01792854103503276 -0.02123830261122382 0.002877700433983186 
-0.003374832670521429 0.03146261170865155 0.04394315649588457 -0.04244204299565269 -0.04003447252192045 -0.01806780865682925 
0.008028704160358462 0.0019952143164224 -0.001219289247932709 -0.004430723705277419 -0.01200866340106525 0.001733402770750947 
-0.01566078251778764 -0.0102010961114315 0.001468419274623146 -0.004426897322608082 0.001775925034092888 0.01242665697595324 
-0.03229848074043191 -0.01535986142988285 -0.01229565522545676 -0.01232343998864848 0.002404176667711108 0.03940698417856123 
-0.0007349379926720543 -0.02900930948608928 -0.006394918811764073 -0.004945887032347336 0.002150660969816197 0.01130774918104767 
0.01168785749332291 -0.01058165904834786 0.02201168629417952 -0.004843253123991121 -0.02394975492537862 -0.004731824449541806 
0.002263326402090585 -0.01244593429568945 0.008019623677752724 -0.004197418872187034 -0.002743204233658733 0.002299146896347752 
-0.02583925326429774 0.04385724695475431 -0.007257288197243486 -0.03724517467325748 0.001789294098520922 0.004746467381663708 
-0.01688830288825775 -0.007816201258409337 -0.007058800474596915 -0.008788473799234474 0.004478843749872079 0.01185742293121472 
-0.003116986354062972 0.0006947223756985197 -3.05787103254054e-05 -0.001681092437539069 -0.01257905865747077 0.006129129781147108 
-0.0007843982332469608 0.00419195483343466 0.002072921735245498 -0.001794623075180042 -0.01105670821943179 0.001287512647402659 
0.01572719497708085 0.00642291934078827 0.01027802365628036 -0.02098790408518923 -0.003090137187536787 -0.02350772375032443 
-0.03710234392105391 -0.004123837076403629 -0.00369091642995345 -0.00645627104598166 -3.274164102712366e-05 0.03010591673088092 
-0.03239215303860283 -0.007524799091426816 0.0006014702964430081 -0.005033058181371507 0.00592488076076414 0.0124024777452532 
-0.01843926266161119 -0.00589521872394208 -0.01506551873526488 -0.00500567410417815 0.04106550802779617 -0.003068875500239912 
0.01634441233772368 -0.02787091611783167 -0.03063762091238305 -0.01307229295047809 0.04523071302207141 -0.007063350569557046 
0.01028143495073827 0.02015497222869324 0.01782512726230885 -0.04099157638554774 -0.00531754143022542 0.009920833753307198 
-0.02170468376569093 0.006382188918471827 -0.01096571659503331 -0.01074491371228718 0.01213509306467024 0.004517305778623634 
-0.0212066275197038 0.0002944910003355299 -0.007349516130228091 -0.005522890925608045 0.006820222852332839 0.01257800540152156 
-0.02790241735176223 -0.0003507591069767789 -0.0154738225404327 -0.004926243251649166 0.02749103782907656 0.01034620117642013 
-0.007723302405588367 -0.006058844477150101 0.008576562269529311 -0.003817459806038511 -0.008342578870207531 0.0009062622741726462 
-0.01581202001075869 -0.001494756268797047 0.006936027770414214 -0.003359136657497728 0.006729773361490115 0.003467295118372917 
0.002535448129293801 0.008450062795930281 -0.01027001510452137 -0.005467312852730212 0.02201146157799706 -0.0192105741726071 
0.02571942746218742 0.01927068707062447 0.01278065061244412 -0.06229197502886735 0.003110650244355069 -0.02365942071176277 
-0.01730243716533216 -0.01359330867929667 -0.01275720637401151 -0.02204629534315969 -0.02214707423394177 0.03859085832205812 
0.0192925941430446 0.01129612936042724 -0.01161482033625985 -0.003459377543998821 -0.01440741501446853 -0.01386065000501144 
0.028853988600311 -0.008239338967038481 -0.00973978068098038 -0.00234962045069528 -0.004242841160507376 -0.01452683728215208 
0.01254430785485772 -0.006782272113744271 -0.01454778031995244 -0.003452804437484818 -0.01003656357543246 0.01812295724066111 
-0.01127083454669656 -0.0009867804462120723 -0.0256788306625586 -0.002551840223498791 0.05216526880088217 -0.004025631425496235 
-0.02617130322301998 -0.001564993936579503 -0.004026776278183818 -0.003587384243759548 0.003621189733576003 0.01827966288539349 
-0.008295923515297272 -0.002501177718652782 -0.01516261562007204 -0.01300600724613919 0.006168536764548719 0.01367816890866753 
0.06159065103835926 0.005411959087713976 -0.02050362891808523 -0.0178185036090925 -0.0009424285158696441 -0.02854847159408548 
-0.01013191850583834 -0.02315651495348973 0.02082570899432059 -0.04168454944166498 0.02486013586308868 0.007341646176444028 
-0.02891279635829043 -0.005442086422501981 -0.01290115121201839 -0.004626044403409637 0.02293509738921561 0.01492786165198643 
-0.02273167527640642 -0.004645069537099203 -0.003470522199089726 -0.002011920221709556 0.004994179491169578 0.009832112333347364 
-0.01473014350121356 -0.01487200870069815 -0.01100007541062628 -0.003096219985519899 -0.002006700679886605 0.02875432582615949 
0.007139101684619548 -0.007547528045177939 -0.008839515584898334 -0.0005500227155875318 -0.005785275317839662 0.009166540833651779 
0.03351070013636687 -0.007172695258982573 -0.008412799186843983 -0.0003523131002732891 -0.01354078622145178 -0.009054099515566114 
0.01525130001244929 0.008795296570957791 -0.01546891693919209 -0.001323491119347589 -0.01644059800680289 0.0007148405333232316 
-0.00871777938710001 0.01075919939727149 -0.002256441306326302 -0.0357550326678766 -0.02021399321552482 0.01510681170743091 
-0.009742830618735035 -0.005625492726724015 0.002877493985612116 -0.02766671657006396 -0.0272091769187926 0.02941250556119157 
0.001570384208107696 -0.0004537056268197356 0.0008619736481092652 -0.006640631805939655 0.006116475153327515 -0.01155997706560388 
-0.002481567898086491 -0.005100131528138439 0.00327592862549682 -0.002337346897734619 0.001398302316109914 0.005957330483504524 
0.001834023041504781 -0.009525158003102063 0.005493487148770711 -0.003189781229478932 -0.01285547256444036 0.004495181846544378 
0.057903386281961 0.002993793810330912 0.004256363564293428 -0.02092096227344165 -0.05282724515810482 -0.01245279751275638 
-0.002604664955565618 0.001572333352353345 -0.0001508551610302576 -0.001817786471786316 -0.003969044898447459 0.001784048710137761 
0.005489819681098686 0.005733586321917594 -0.0004360100966247843 -0.002008614623415797 -0.004060090592476229 -0.004379816562012123 
-0.002321861129809367 0.01591351374777046 -0.0154049750103532 -0.008162187891366114 0.01682292074204453 -0.004158393265213734 
0.0112625278596876 0.02870917638291295 0.0166415714496693 -0.0301720078724222 -0.03781479170147173 -0.009173860771553763 
0.002911321384903261 0.0009258802238917233 0.01250207548517239 -0.008833655450334349 -0.007551667698060548 -0.002538052083314961 
-0.02638209914081875 0.007053738132679762 0.01152651823893814 -0.01560689862960356 -0.01730293968408423 0.03253849852013305 
0.03453619780737407 -0.04791995810305283 0.003465407654672523 -0.009118805754517815 -0.01942426795069807 0.01743505984367198 
-0.01298386206445918 -0.02956647891449385 -0.008568995900794771 -0.0425336472130559 0.0354571916978238 0.02842901048668899 
-0.0002345606552025116 0.002451625055145427 0.009477149921928517 -0.006001574582759489 -0.01057245243412534 -0.001624272312224318 
0.01582798090744204 -0.000138643821101864 -0.001166858955930037 -0.001031035210572045 -0.01349498069768887 -0.005232691530676016 
-0.01058302103198695 0.04589221409452023 0.01507848079484429 -0.03513315845883307 -0.03129535064299484 -0.008938849805643858 
-0.001574251290617313 0.01255218417016273 0.006053467077266224 -0.00890471366304285 -0.01027563277521481 -0.006229849170611914 
-0.004988988390965098 -0.009250878647523221 0.03200153828591857 -0.02453439698639787 -0.01569315744973611 -0.006040317229637634 
-0.005100421869263441 -0.001827196273285581 0.01901780288391303 -0.007498724503650895 -0.02206919417932754 0.00352968986934462 
0.01791394063273938 -0.02429846399562209 0.02103148701954619 -0.008546742874828759 -0.02578639282279386 -0.01268841911341095 
-0.05832661448883551 -0.02511184393544345 0.0005697067985264143 -0.02805341976727879 -0.06732026870923781 -0.004094493987444417 
-0.00115040879116146 0.0005374509308322579 0.001062795552857845 -0.0006247205151810818 -0.001397434705446021 -0.0005752470065154457 
-0.001443590940939007 0.001959628669608014 0.002420365512324625 -0.0009442954457095615 -0.004006462557436002 -0.0009389381309573287 
-0.0003995799881752509 0.0001973160709798368 0.0003005505407996424 -0.0001307627966447509 -0.001127240459913703 -0.0001177469972922163 
0.0001848069667383772 0.000522610816826436 0.0004236239797610771 -0.0006476418683306458 -0.002991152933647676 -0.002275633958701987 
-0.0003842627453057182 5.818526434168781e-05 0.0008255682816197894 -0.000166782384918461 -0.0009039382544936602 -5.111296086070745e-05 
-0.000980616821097732 0.001074968673831502 0.0008076687195330419 -0.0004238701834504574 -0.001720196217661839 -0.0006619545082913639 
-0.001021577093128485 -0.0008265672973534062 0.0005371646564496157 -0.0002814700281066884 -0.001651212625922456 0.0003266509126331098 
-0.003135997194112344 0.005291759515395475 0.001876546037204883 -0.001510238709641974 -0.003929334272340615 -0.002452476449067548 
-0.0003091983093245006 0.0001763771191838212 0.0002104598275197166 -2.85449793563421e-05 -0.0003322601758322505 -0.0001281043291399698 
-0.0004444488883708008 0.0004229567105709737 0.0005918033861153716 -0.0002002792515494148 -0.0007503998563951833 -0.0004252954953001011 
-0.0001014873722743184 4.016154176159827e-06 0 0 -3.09183341247101e-05 3.425714186437542e-05 
-0.002641564683131084 0.002059270136260331 0.0004095865241227615 -0.0008833406394911965 -0.003558848966840282 -0.001691781988807976 
-0.0004428455773198025 0.0001612617426329899 0.0005180140545697528 -0.0001180585086614765 -0.0006891109332316141 7.112593746893459e-05 
0.01278599924972626 0.003893880990226178 0.003202963805396918 -0.006406711080214825 -0.01513510217871868 -0.01738310065936186 
0.008532107510507441 -0.001310719893210284 4.912673599203693e-05 -0.0007458922075943042 -0.005209827922013265 -0.01069879363843642 
-0.001153060086691165 0.001491725084732822 0.001197131936625507 -0.0004381411218430999 -0.002385999859052857 -0.001459499968844426 
-0.0003084020956768264 -0.0001337589183720257 0 0 -7.594179683540599e-05 0.0004064819340417463 
-0.0004676808714993404 0.0001910951528904365 7.74782129236079e-05 -0.0001960156390496616 -0.0001031085883651993 0.0001606134030747182 
-1.867746812364605e-05 0.0002737301600066837 -0.0001915983195877007 -9.928502189910191e-06 -0.0003537387448586624 -0.0001931765255127771 
-0.000388990076298573 0.0007827244149176098 -9.598448946327014e-06 -0.0001290398527452959 -0.0005994203601075444 -0.0003448290619141895 
0 0 0 0 0 0 
-0.000432551177686946 0.0006639084987446786 -7.622582771927957e-05 -0.0002021146517303876 -0.0003963677854339944 5.598532681809681e-05 
-0.0001177955974896521 -2.393155356566402e-05 0.000155651523437789 -0.0001301911183501868 -6.028526563455155e-05 0.0001774515624173265 
-0.0002074319042047597 0.001658526665447193 0.0002192398855034867 -0.0004318501982817898 -0.00143175334376681 -0.002019421119582236 
-9.085159495517649e-05 3.098042414017722e-05 -5.700713788135015e-05 -2.267470453181478e-05 -3.22884493467817e-05 0.0001103131594150426 
-0.000212792736089792 0.0003341058975442633 1.694065894508601e-21 -7.034016954131997e-05 -0.0001627115978045298 -5.766566227026272e-05 
0.0001471150441870728 -0.0002959696503387641 -6.352747104407253e-22 -9.928502189910195e-06 -7.744136654575548e-05 -6.660081245949021e-05 
-0.002792560744872621 -0.001752414201684557 -0.0004218208252137016 -0.0004789602457564711 -0.001435809089538418 0.00454297335598076 
8.876525524519681e-05 0.0001967218523396094 0 -8.825505331019895e-05 -0.0001024368147309958 -0.0002794246870605828 
0.004872094291101796 0.01130145893589784 -0.0002940185955944516 -0.004085058420793528 -0.01398847814762676 -0.01087797297468003 
0.004878168190171479 -0.0009645623553520232 0.0003141129354014581 -0.0009619438781627025 -0.002927709989527526 -0.006469394566066321 
-0.00180031095201719 0.00174222436324845 0.000430256685645792 -0.0003653375239776855 -0.0009504414939557886 -0.00084251146139502 
-0.0001348995932338335 0.0002913125577445029 0.0002147711550690454 -7.870303069454389e-05 -0.0002304189572132249 -5.253705624520216e-05 
-0.0001004106768195707 7.833513604771692e-05 0.0001497879126769407 -3.293043088870513e-05 -0.0001073119195814418 -2.125636513807799e-05 
-0.000277555072134895 -1.425382037898114e-05 0 -4.743323243607755e-05 -7.431868493141111e-05 0.0001866055167644331 
5.23123728069873e-05 0.0002507673973296799 0 -5.070084047793845e-05 -0.0001015736591970323 -0.0002564647078969902 
-2.20977820005998e-05 0 0.0002776904507139139 -4.830614912741681e-05 -0.0002023513265362084 0 
-0.0003678212565915755 0.0003283666773549171 0 -6.19394433225628e-06 -0.0001171421756162366 -0.0001730524346412556 
-3.835432002672195e-05 -1.718121184990195e-05 0 0 -5.798371843096675e-05 -4.917365999164344e-05 
-0.0003712060432135539 0.0006601011732631396 0 -9.766595607204024e-05 -0.0001595503622725552 -0.0003904861129871522 
0 0 0 0 0 0 
-9.57289259086794e-05 3.309163344262545e-05 0.0002104598275197166 -2.854497935634211e-05 -0.0002839606117654134 -0.000156744411779012 
0 0 0 0 0 0 
-6.130194453771149e-05 0.0001517496636478966 0 -2.535907761903016e-05 0 -0.0001642881494306245 
-5.086768057669659e-05 0 3.897305501369165e-05 -7.204945415614988e-06 -3.970754662378011e-05 0 
0.0004149776561227826 -0.0001053807777152653 0 -2.474926923866427e-05 -3.479955189318275e-05 -0.000493615329528 
-0.0004051376069695592 0.0004368396775365292 2.458092420259068e-05 -7.204945415614989e-06 -0.0002005393528621254 1.115025762027127e-05 
-0.002891583334722488 0.00318625879077009 0.0004461380340670255 -0.0002467487358371024 -0.000977931015091347 -0.002495690115736905 
0 0 0 0 0 0 
-9.644169294414542e-05 8.912270888061442e-05 0.0001292467764106299 -8.439125059338228e-05 -0.0001647425574558323 0.0001249145061721244 
-9.650737195133006e-05 0.0001561686193496293 0 -1.280494359359631e-05 -0.0001791805261292118 1.875422243321214e-05 
-2.545241002945503e-05 3.942384829974164e-05 -3.242548001207868e-21 -2.265120153566576e-05 -0.0001310426557360523 9.793537555354913e-05 
0 0 0 0 0 0 
-0.0001249064602728557 6.11773358884707e-05 0.0003747848502442339 -8.391562145717906e-05 -0.0003942205243177797 0 
9.048749964752804e-05 -1.250856253224253e-06 0 0 -7.888172569443503e-06 -0.0001087499569091423 
-0.01100765368592874 0.01193277555319281 0.002652192292911199 -0.002229143333746509 -0.006814255504711042 -0.01556045556268893 
0 0 0 0 0 0 
-0.0001813197656233986 -0.0001911493521289194 0.0003396962964454792 -0.0002062419449054098 -0.0006866055199467471 0.0002196992849219002 
7.624930645732253e-05 -8.120486250156227e-06 -1.507476424976386e-05 -1.953596541142825e-05 -0.0002353311905496877 -0.0001607463084581484 
-0.00571442058736515 0.002222370205030848 0.003706783539001852 -0.002081947049447624 -0.008096463709294708 0.002830040714356075 
0 0 0 0 -1.639039017457526e-05 -6.703209374832916e-05 
-0.0001986251459884236 -0.00184230823545736 -0.0005220411532168563 -0.0004738362900866213 -0.0002946640224842042 0.001094952165303814 
-0.0004543675092679021 -0.0005079447994456385 7.161460216275959e-05 -7.120831842190011e-05 -0.0006550896311495098 0.0004171269027268073 
-0.002066748324969275 0.001146037006676246 0.0008849973588995098 -0.0004584232259613038 -0.001105498914754325 -0.0004293533993121131 
0 0 0 0 0 0 
0.0001939256347218085 -3.051666973333762e-05 0 0 -3.147677939751809e-05 -0.0001892248922684632 
-6.322606359078287e-05 0.0002106981009247635 1.455837878093329e-22 0 -0.0002771214120452454 -0.0001762386703965649 
-0.0003801756674087741 0.000167513672611388 -9.109911650074071e-06 -5.736173462598772e-05 -8.878135730228391e-05 -0.0001553799166934584 
-2.993447242306269e-05 0 0 0 -8.34407246275558e-05 7.112593746893459e-05 
0.0003332392098179388 -5.49266892671389e-05 0 0 -2.190975640161064e-05 -0.0003281434590490915 
0 0 0 0 0 0 
-0.0006402980583475166 -0.0001582019146580049 0.0001989721582871034 -0.0001053019964072452 -0.0003367960025495776 0.0006435225138174888 
0 0 0 0 0 0 
0 0 0 0 0 0 
0 0 0 0 0 0 
1.228667681288331e-05 3.217296582434576e-05 0.000235939624887277 -5.976254689347064e-05 -0.0003136895679112129 -0.0001060158091455368 
0 0 0 0 0 0 
0.0001939256347218085 -3.051666973333762e-05 0 0 -3.147677939751809e-05 -0.0001892248922684632 
-0.0001092157251034264 1.654581672131273e-05 0 0 -5.798371843096675e-05 -2.247495231586563e-05 
-9.572892590867939e-05 3.749736481202944e-05 0.0006823390772942706 -0.0001480700731432834 -0.0006293719090964842 0 
0 0 0 0 0 0 
0 0 0 0 0 0 
0.0001323943692415687 -3.180561730491824e-05 0 0 -4.46426851077864e-06 -0.0001196235169054546 
0 0 0 0 0 0 
0 0 0 0 0 0 
-1.013172025627041e-05 9.213999744287969e-05 0 -2.458219448419664e-06 0 0 
-3.811648262644352e-21 0 0.000235939624887277 -5.976254689347064e-05 -0.0002152302000341474 0 
-0.0006434997860429201 0.0001301594107336126 0.0002263210710016336 -3.749509564288038e-05 -0.0005159736939190919 0.0001712448503611384 
0 0 0 0 0 0 
-5.505714157152952e-21 2.758550898692719e-05 0.0005924339425216814 -0.0001921005461798137 -0.0007380130980725626 -2.125636513807799e-05 
0 0 0 0 0 0 
-4.823998232072476e-05 3.913792468481066e-05 0 -4.450689614568215e-05 -0.0001031570349317518 0.000143839215184809 
0 0 0 0 0 0 
-9.476217331993345e-05 5.180042284833989e-06 0 -2.535907761903017e-05 -3.388131789017201e-21 8.507175453143412e-05 
-2.455798790661396e-05 4.386539016382607e-05 0.0003747848502442339 -0.0001284225176028611 -0.0003164058633022517 0 
-0.002401532532679431 0.001165766222329487 0.0006480363694121602 -0.0002287615712949135 -0.000971978873348453 0.0001264647193650363 
-0.0003648509599880344 0.0002120835151702254 0 -0.0002903017357791646 -7.546771793171892e-05 0.0005355442317964922 
6.617444900424221e-22 1.654581672131273e-05 1.694065894508601e-21 0 -0.0001057090475698688 -7.837220588950599e-05 
-1.013172025627041e-05 9.213999744287969e-05 0 -2.458219448419664e-06 0 0 
-5.976856605301997e-05 0.0001676064011641972 -1.355252715606881e-20 -6.319209279440431e-05 -2.844231508323185e-05 -2.125636513807799e-05 
0 0 0 0 0 0 
0 0 0 0 0 0 
-0.0001477800356976469 2.646977960169689e-22 0 0 0 0.0001304425530878165 
-0.0001310534737586246 -2.584534242359852e-05 0 -1.334202107917197e-05 -0.0001298847497421725 -8.765331591245101e-05 
0 3.97651030940046e-05 0 0 -1.21336549818315e-05 -6.321311081773564e-05 
-0.0001595504570447252 0.0002188012114331063 0 0 0 -0.0001006202045869407 
0 3.97651030940046e-05 0 0 -1.21336549818315e-05 -6.321311081773564e-05 
-0.0001272606625982377 -2.954925614575429e-05 0 -2.474926923866427e-05 -0.0002214579472869117 1.030741811046293e-05 
0 0 0 0 0 0 
-3.064574408783702e-05 -0.0001222189440908993 0 0 -4.631811738465673e-05 -3.937582816575063e-05 
-8.475057706276552e-05 0.0002180384661034226 2.458092420259068e-05 -7.204945415614988e-06 -0.0002005393528621254 0 
-0.0008324108190224451 0.0004736041327652495 0.0004851105242303637 -0.0001391617686673471 -0.0006037772380895481 -1.742136263695306e-05 
0 0 0 0 0 0 
-0.0001477800356976469 2.646977960169689e-22 0 0 0 0.0001304425530878165 
-3.811648262644352e-21 0 0.000235939624887277 -5.976254689347064e-05 -0.0002152302000341474 0 
0 0 0 0 0 0 
-8.468003490837946e-05 0 0.0003075542270500366 -6.415445168610434e-05 -0.000282047711669523 0 
-0.0001049272195549893 0.0001034261734791487 0 0 -0.0001429594541353889 -0.0001015453750273658 
-0.0001235851542749181 -3.348121063586959e-05 0.0002776904507139139 -4.830614912741681e-05 -0.0002023513265362084 3.425714186437542e-05 
-0.004349300519150139 4.885985334099131e-05 0.003843460589577528 -0.0007812267261468427 -0.004066817311885431 -9.909752043504883e-05 
6.293172324598373e-05 9.419038919714118e-05 -0.00010098036105732 -6.986597376471225e-05 -2.905207501102294e-05 -6.63624468560205e-05 
-1.460268279431705e-05 4.95527543855113e-05 0.0008283735674089587 -0.000274596538856791 -0.0009882033343273377 -3.72635493118245e-05 
-4.551227560622368e-05 0.0002500199442903244 0.0002376628716159322 -0.0001201715010901058 -0.0006243047194888173 -0.0001417053847018675 
-0.0006048603177516001 0.0001484654793001549 0.0003228885535412674 -0.0001571270673587553 -0.0004807332761248355 -0.0004607827847505816 
-0.0001004106768195707 0 0.0003857275375642176 -8.649903344991952e-05 -0.0003225421196155891 0 
-0.0001878358104425371 0.0004505008545888045 0.0001960676967086156 -5.32942485950064e-05 -0.0005263828599114024 -0.0002175013265688837 
5.137242973589387e-05 0.0002158686325790319 0.0007885016392302972 -0.000296198998904712 -0.00113691302104399 -0.0003131859456241706 
-0.0006064926016185098 -0.0002141548780296007 0.001913235029979414 -0.0004962690055972942 -0.001612273315547716 0.0001616277222627528 
-0.0003547705440676479 0.0001923754237734751 0.0002658564558910164 -6.023817602967386e-05 -0.0002904707420928936 0.0002027436589266048 
0 1.654581672131273e-05 0 0 -5.798371843096675e-05 -7.837220588950599e-05 
0.002372674752632764 0.003135185938171231 0.001080766478935958 -0.002501364014262186 -0.005201845974535259 -0.002909187069339347 
0.0001374463668536111 1.616979926562669e-05 0.0001188314358079661 -6.478146289722018e-05 -0.0002636686900825683 -8.813356615221039e-05 
-0.0006525721846861466 0.0002749530179213818 0.000721826052156258 -0.0002745219563294932 -0.001205962558610756 0.0004717567072998206 
-0.0001716448979180108 0.0002471759073244579 0 -1.334202107917197e-05 -0.0001905931754829316 -0.0001100373773059851 
-0.005570953818119136 -0.00430455423022726 0.004443029269206527 -0.001422372339113179 -0.005374241676083667 0.006556389741712978 
-7.623296525288703e-21 0.0001164000992817485 0.0004622808008282269 -0.0001195250937869413 -0.0004832632284587892 -5.253705624520216e-05 
-9.644169294414542e-05 -6.283862442171267e-05 0.000138845225356957 -7.158630699978604e-05 -0.0001011756632681042 0.0001774515624173265 
-1.10488910002999e-05 3.97651030940046e-05 0.000138845225356957 -2.415307456370841e-05 -0.0001133093182499357 -6.321311081773564e-05 
-0.0003879886268707142 0.0007466649802074241 -0.0002667333878219689 -7.990762514027587e-05 -0.0003732009489916062 -0.0006687192753662935 
-0.0001726970195843979 0.0002317154214805812 0.0002263411759409499 -6.595649122572691e-05 -0.0004455087482878046 3.435312137715729e-05 
2.698839442663881e-05 7.037893171714653e-05 7.161460216275959e-05 -9.264695810283267e-05 -0.0001693097500405025 -0.0003015406765804589 
0 0 0 0 0 0 
0.001030740952908086 -0.0008998738748251438 0.0007990581135344827 -0.0004787702824120616 -0.00316362738270377 -0.001852635820640218 
-0.0001632318971839666 9.425425535463994e-05 1.694065894508601e-21 -6.827420372686452e-07 -0.0002246211905302736 -9.042497100759196e-05 
-8.539280194384552e-05 9.105883967206526e-05 -9.598448946327014e-06 -4.743323243607755e-05 -8.37211625152043e-05 0.0001249145061721244 
0 0 0 0 0 0 
7.820954615493132e-05 0.0002523653052201954 0 -6.193944332256276e-06 -0.0001778396439782878 -0.0003220048091477607 
0 0 0 0 0 0 
0 0 0 0 0 0 
-0.0001138575692725559 6.11773358884707e-05 0 1.164670302474663e-21 -7.781466101552798e-05 0 
-0.000170072836852225 -2.307352132770811e-05 7.161460216275959e-05 -5.182513722871125e-05 -7.895116661720712e-05 0.0001142384515995908 
-1.402429048793046e-05 0.0002040307078021113 1.694065894508601e-21 -5.293955920339377e-23 -0.0001109028713374184 -0.0002047984275249773 
-5.397838553196955e-05 2.637826907590421e-05 0 0 -2.419597042339402e-05 0 
0 0 0 0 0 0 
-0.0003656723804643483 0.0001589018296390395 -0.0002722097031254058 -5.827359202584915e-05 -5.032569405215076e-05 5.405336115224649e-05 
-0.0001632812790883101 4.361484803204105e-05 0 -5.699814846214802e-05 -2.844231508323186e-05 9.321404361277032e-05 
-7.171613129266723e-06 -1.072313969138228e-05 0 0 -2.643310051025023e-05 4.649030528995077e-05 
1.156614479594148e-05 -1.243285575773514e-05 -2.223461486542538e-21 -7.218250167474186e-05 -0.000150272742403115 -3.899871032080395e-05 
0.001411428865051638 0.0002501623220285638 0.0001148546455995289 -0.0001680734412138742 -0.0008872525696151817 -0.00184859270151374 
-0.0001313671717439042 0.0001625951255819678 0.000235939624887277 -5.976254689347064e-05 -0.0002750891841548811 -0.0001840932797049407 
-0.0001143669764871778 0.000126457541071075 0 0 0 -0.0001478494623076584 
0 0 0 0 0 0 
-0.0001033716221801702 0.0002053661562404397 0.000235939624887277 -8.512162451250074e-05 -0.0002940131534763369 -0.0003053949041148935 
-3.811648262644352e-21 0 0.000235939624887277 -5.976254689347064e-05 -0.0002152302000341474 0 
-1.10488910002999e-05 -1.691654186908263e-05 0.0004936162860521994 -0.0001259636385708927 -0.0004906668243239734 0 
0 0 0 0 0 0 
-0.0002773399122592131 0.0001057156745704025 0.0009289067957290014 -0.0003351503946778732 -0.001602808956321481 0.0002044624358611305 
0 0 0 0 0 0 
0 0 0 0 0 0 
0 0 0 0 0 0 
0 0 0 0 0 0 
0 0 0 0 0 0 
-1.10488910002999e-05 0 0.000138845225356957 -2.415307456370841e-05 -0.0001011756632681042 0 
0 1.654581672131273e-05 0 0 -5.798371843096675e-05 -7.837220588950599e-05 
0.0002122684699126508 9.874189366770189e-05 0 -8.470329472543003e-22 -0.0002031236411135733 -0.0005056627535431537 
-5.397838553196955e-05 2.637826907590421e-05 0 0 -2.419597042339402e-05 0 
-0.0001906226360670314 0.0001713153258993834 -1.870836059640109e-05 0 3.676001069811028e-05 -0.0001752710194584098 
0 3.749736481202944e-05 0 0 -3.09183341247101e-05 0 
-1.340198191209599e-05 0.0001033079291201569 0.0003330139194782809 -8.512162451250077e-05 -0.0003804978514175238 -0.0002674729792131129 
0 0 0 0 0 0 
-0.0001050719983897436 0.0001265685219954072 0 -1.334202107917197e-05 -0.0001056174397785095 -5.766566227026272e-05 
-9.255045604778443e-05 -2.684987615861442e-05 0 0 -1.535247216898419e-21 7.404517266934073e-05 
-0.0003166926132921542 0.0001698342156298766 0.0003547710606952431 -0.0001018105640071843 -0.0005585218513044179 2.866793810346961e-05 
1.802739275439092e-05 9.465192376615686e-05 0.000235939624887277 -5.976254689347064e-05 -0.000295387629783809 -0.0002674729792131129 
-0.0001372630095162549 -4.121458749517614e-05 -1.507476424976386e-05 -4.743323243607755e-05 -0.0001828631018752845 7.699781947867144e-05 
-2.364081716258448e-05 0.0001360053876067058 0 -4.696511559410184e-05 0 0 
-0.000877154486653196 0.0005036887634659931 -0.0001335500348985742 -0.0002391852347948256 -2.422295176410505e-05 -0.0006607124256152253 
6.378287602640026e-05 -6.926345124120166e-05 -1.507476424976386e-05 -4.450689614568217e-05 -8.372999252720654e-05 -1.131798805733237e-05 
-0.0003024776593534287 8.730127705967439e-05 0.0001778182803706487 -8.498519674765727e-05 -0.0002277094837865717 7.625826808507249e-05 
0.0002984131468789073 -0.0001900015783061786 -2.98950741685297e-07 -4.743323243607756e-05 -7.673025197119654e-05 -8.191358560860655e-06 
0.001181384026630804 3.22950070360814e-05 0.0001755459491303838 -0.0002347083133881451 -0.001463420167302268 -0.001400904049203599 
-0.000704285823624981 0.0005521007370686513 0.0002890362621721522 -8.769482118359952e-05 -0.0003822838435413307 -0.0002836214336974922 
-0.000405431158343461 -3.128410091951056e-05 0 -6.193944332256276e-06 -7.830424129484379e-05 0.0003706029898463122 
-0.0003081488699256166 -0.0001482194041245939 7.817331051418118e-05 -6.977781419989278e-05 -4.049440794606608e-05 0.000363879649642867 
-0.001804409666992799 0.00266086833767954 0.001207133641712284 -0.0005419817821784211 -0.003596330875095595 -0.001155880983436542 
-8.539280194384552e-05 -2.727739040113402e-05 0 -6.023817602967386e-05 -1.076406579723393e-05 0.0001774515624173265 
-5.146492078474742e-05 -7.61160771942973e-05 0 -4.743323243607755e-05 8.470329472543003e-22 0.0001774515624173265 
-2.364081716258448e-05 0.0001360053876067058 0 -4.696511559410184e-05 0 0 
-0.0004563942804724342 -0.0005515346903299672 0.0009704266394010786 -0.0001928385349612601 -0.0009193680812180892 0.0006475594801190045 
-0.0001230665702382327 0.0001320552286662703 0.0001682198314243216 -3.13580199793234e-05 -0.0002443151092160231 -6.046750955251392e-06 
-0.0001240058992560567 0 0 0 0 0.0001177296519433432 
5.082197683525802e-21 7.833513604771692e-05 0 -6.193944332256276e-06 0 -2.125636513807799e-05 
-0.0002809021719355996 0.000154706213189648 0.0002208648606375131 -0.0001040371011643299 -0.0004255537696466328 0.0004023026576190444 
-5.976856605301998e-05 0.0001616315749980649 0 -6.980309205574428e-05 -5.13400358622973e-05 -6.321311081773564e-05 
0 0 0 0 0 0 
0.0004090129373104829 -7.881151985823513e-05 -2.98950741685297e-07 8.470329472543003e-22 -9.232564839132566e-05 -0.000207802069301726 
0.0004724507161369112 -0.0001866965590633161 0.0001188314358079661 -0.000118743450346797 -0.0004447553337293653 -0.0004677022891729336 
-5.086768057669659e-05 0.0001138963700682955 3.897305501369165e-05 -2.620383334146759e-05 -5.047161242101402e-05 -2.125636513807799e-05 
0 0 0 0 0 0 
-5.086768057669659e-05 0 3.897305501369165e-05 -7.204945415614988e-06 -3.970754662378011e-05 0 
0.0001912483429763066 0 -3.223389111787302e-05 0 -9.891620918527563e-05 0 
0 0 0 0 0 0 
-4.551889007244969e-05 0.0001726286884698366 -7.899114063741742e-05 0 -3.61328342824233e-05 0 
-5.976856605301998e-05 8.630523788348172e-05 0 -5.699814846214802e-05 -2.844231508323185e-05 0 
0.0001222626489852983 6.033438013796146e-05 0 -2.458219448419664e-06 -4.46426851077864e-06 -0.0001196235169054546 
-0.0001035127130352901 -7.129155830861978e-06 0 -1.280494359359631e-05 -1.076406579723393e-05 9.321404361277032e-05 
-0.0001138521545385489 2.421991203944475e-05 0 0 -3.09183341247101e-05 0.0001304425530878165 
0 0 0 0 0 0 
6.884890248224275e-05 4.260485075767065e-05 0.000235939624887277 -6.222076634189025e-05 -0.0003090029028970291 -8.364165618269724e-05 
-7.670461978453774e-05 0.0002127473827719303 1.694065894508601e-21 -2.458219448419664e-06 -0.0001327010648433242 -5.237171503572233e-05 
-2.787011400358023e-05 0.0001605866067434376 0 -0.0001205841316173889 0 0 
0.0001595463247835431 1.334872043048849e-05 0.000138845225356957 -6.865997070939052e-05 -0.0002021290486874482 -0.0001892248922684632 
-0.0001384918217321128 0.0002045855012691629 0.0002351217947640407 -0.000184088908614609 -0.0005307963829054311 -0.0001602185370546983 
-0.002794163871824345 0.004877705856716352 0.0005337336238091665 -0.002111671415443846 -0.002498353390212371 -0.0006489258204269901 
-0.003024657696874899 0.004526835539821087 0.0004240125308903407 -0.001406097205003468 -0.004698592169201991 4.796814644786428e-05 
-0.0001050719983897436 0.0003099721559759482 -6.660558682767711e-05 -3.601672561098672e-05 -0.000172968342210776 -0.0001102027185154649 
-0.00146694219814365 0.001157878539198883 0.000697374720518739 -0.0003923688486928118 -0.001671085682054312 -1.336099078593049e-05 
-0.0005171383035481559 0.0004021794017578404 -9.598448946327014e-06 -2.668404215834394e-05 -0.0002640377079475133 -2.43344800216517e-05 
-1.736417541871316e-20 2.966027232998636e-06 0.000235939624887277 -5.976254689347064e-05 -0.0002152302000341474 0 
-6.70810229972267e-05 2.924394546916449e-05 0 0 -0.0001360845164826865 2.41415814666241e-05 
-0.0007125657651504484 0.0004679647425358872 -8.894683852302732e-06 -0.0001961733370305796 -0.0006842065219245477 0.0003772261390183337 
-0.0004991728881131592 0.0004429706011775701 0.0001023470003918695 -5.661921964534548e-05 -0.0003340517800419056 -6.260663535917206e-05 
-0.0001755409174982923 0.0002443448526663638 1.164670302474663e-21 -5.768089049941665e-05 -0.0002212305909845005 -5.237171503572233e-05 
-4.795217164702851e-05 0.0001212321376653743 1.694065894508601e-21 0 -2.865184294278858e-05 0 
3.071893359450812e-05 0.0002412195840060106 -9.598448946327014e-06 -5.699814846214802e-05 -0.000101266971025001 -0.0002245001239720801 
-0.0002377449633691916 0.0002513084594633184 0.0002564284328642235 -7.260472955186754e-06 -0.00021694107458114 -0.0001208801688872049 
-0.0002114491681784855 0.0003270679010748445 0 -4.450689614568215e-05 -9.710939068625365e-05 -0.000236464994740663 
0.001883149229256066 0.0008146100573884715 0.001011045712386757 -0.0002081433069822236 -0.002239662676325656 -0.001738143026936997 
0.0004559999253915065 0.0001599762489967297 -8.051102209922345e-05 -0.0001684748329755595 -0.0004350633913822829 -0.0001639597737920949 
-0.002650672965849893 0.005427422678881954 -0.0004335260820418074 -0.0002643669469411058 -0.006212885711533776 0.0005176587310901849 
-0.0007944860819853083 -8.630084699468283e-05 8.298658619993634e-05 -1.403575124005099e-05 -0.0004475554755973921 0.0007096080908486337 
-0.0003177557725282316 0.0005364048175557923 6.355397921628226e-05 -1.440989083122998e-05 -0.0002881898421822475 -0.0002649083540175654 
-0.001390041938183457 0.0005068163945745515 -6.635945002013058e-05 -0.000128515903777591 -0.0006713555345423444 0.0005618041472643261 
0.0001214623743550621 -4.578511765918616e-05 0 0 0 -0.0001477155373577336 
0 2.787109496959906e-05 -0.00010098036105732 0 -2.905207501102292e-05 0 
-7.874571502869961e-05 0.0002649473136628724 -1.439213081110099e-05 0 -0.0001608318062383453 -0.0001956459528860798 
-0.001179124000942513 0.0003857174230719349 0.002292226991818173 -0.0006393858037769896 -0.002979115762857979 0.0001112843832215952 
-0.001174295917054712 0.001209333710298211 0.001387611516470262 -0.0004308513390625494 -0.001832405620200816 -0.000448436296041817 
1.648998396465881e-08 0.0001401181921567031 3.867410427200634e-05 -5.924806519298908e-05 -0.0005061840467339975 -0.0001615271487226957 
-0.0001050719983897436 0.000204860886342989 0 -2.614696467276828e-05 -0.0001285151605575751 -0.0001208787730879984 
-0.000582901279133308 0.001492959639179491 0.0007425891018922584 -0.0002771421017174733 -0.001871537623060974 -0.0009281114978018039 
-0.0004628798265147954 0.0004886162764401958 8.183808747560674e-05 -0.0002344671548376329 -0.0003730977569164039 -0.000270336376431894 
-0.0004431596064173634 0.0002253536748433587 0.0002104598275197166 -0.0001620656629043642 -0.0003009118533042439 0.0001521160107214349 
0.0002164568202341243 -0.000308544405345955 0.0002884059375470999 -0.000291147424272591 -0.0007932484562208969 -0.0003469776692979759 
-0.001200909316933546 0.001593210506286152 0.002016514119963708 -0.000941237675985229 -0.004529977652959199 -0.0003904106808512216 
-0.05832661448883551 -0.02511184393544345 0.0005697067985264143 -0.02805341976727879 -0.06732026870923781 -0.004094493987444417 
-0.00115040879116146 0.0005374509308322579 0.001062795552857845 -0.0006247205151810818 -0.001397434705446021 -0.0005752470065154457 
-0.001443590940939007 0.001959628669608014 0.002420365512324625 -0.0009442954457095615 -0.004006462557436002 -0.0009389381309573287 
-0.0003995799881752509 0.0001973160709798368 0.0003005505407996424 -0.0001307627966447509 -0.001127240459913703 -0.0001177469972922163 
0.0001848069667383772 0.000522610816826436 0.0004236239797610771 -0.0006476418683306458 -0.002991152933647676 -0.002275633958701987 
-0.0003842627453057182 5.818526434168781e-05 0.0008255682816197894 -0.000166782384918461 -0.0009039382544936602 -5.111296086070745e-05 
-0.000980616821097732 0.001074968673831502 0.0008076687195330419 -0.0004238701834504574 -0.001720196217661839 -0.0006619545082913639 
-0.001021577093128485 -0.0008265672973534062 0.0005371646564496157 -0.0002814700281066884 -0.001651212625922456 0.0003266509126331098 
-0.003135997194112344 0.005291759515395475 0.001876546037204883 -0.001510238709641974 -0.003929334272340615 -0.002452476449067548 
-0.0003091983093245006 0.0001763771191838212 0.0002104598275197166 -2.85449793563421e-05 -0.0003322601758322505 -0.0001281043291399698 
-0.0004444488883708008 0.0004229567105709737 0.0005918033861153716 -0.0002002792515494148 -0.0007503998563951833 -0.0004252954953001011 
-0.0001014873722743184 4.016154176159827e-06 0 0 -3.09183341247101e-05 3.425714186437542e-05 
-0.002641564683131084 0.002059270136260331 0.0004095865241227615 -0.0008833406394911965 -0.003558848966840282 -0.001691781988807976 
-0.0004428455773198025 0.0001612617426329899 0.0005180140545697528 -0.0001180585086614765 -0.0006891109332316141 7.112593746893459e-05 
0.01278599924972626 0.003893880990226178 0.003202963805396918 -0.006406711080214825 -0.01513510217871868 -0.01738310065936186 
0.008532107510507441 -0.001310719893210284 4.912673599203693e-05 -0.0007458922075943042 -0.005209827922013265 -0.01069879363843642 
-0.001153060086691165 0.001491725084732822 0.001197131936625507 -0.0004381411218430999 -0.002385999859052857 -0.001459499968844426 
-0.0003084020956768264 -0.0001337589183720257 0 0 -7.594179683540599e-05 0.0004064819340417463 
-0.0004676808714993404 0.0001910951528904365 7.74782129236079e-05 -0.0001960156390496616 -0.0001031085883651993 0.0001606134030747182 
-1.867746812364605e-05 0.0002737301600066837 -0.0001915983195877007 -9.928502189910191e-06 -0.0003537387448586624 -0.0001931765255127771 
-0.000388990076298573 0.0007827244149176098 -9.598448946327014e-06 -0.0001290398527452959 -0.0005994203601075444 -0.0003448290619141895 
0 0 0 0 0 0 
-0.000432551177686946 0.0006639084987446786 -7.622582771927957e-05 -0.0002021146517303876 -0.0003963677854339944 5.598532681809681e-05 
-0.0001177955974896521 -2.393155356566402e-05 0.000155651523437789 -0.0001301911183501868 -6.028526563455155e-05 0.0001774515624173265 
-0.0002074319042047597 0.001658526665447193 0.0002192398855034867 -0.0004318501982817898 -0.00143175334376681 -0.002019421119582236 
-9.085159495517649e-05 3.098042414017722e-05 -5.700713788135015e-05 -2.267470453181478e-05 -3.22884493467817e-05 0.0001103131594150426 
-0.000212792736089792 0.0003341058975442633 1.694065894508601e-21 -7.034016954131997e-05 -0.0001627115978045298 -5.766566227026272e-05 
0.0001471150441870728 -0.0002959696503387641 -6.352747104407253e-22 -9.928502189910195e-06 -7.744136654575548e-05 -6.660081245949021e-05 
-0.002792560744872621 -0.001752414201684557 -0.0004218208252137016 -0.0004789602457564711 -0.001435809089538418 0.00454297335598076 
8.876525524519681e-05 0.0001967218523396094 0 -8.825505331019895e-05 -0.0001024368147309958 -0.0002794246870605828 
0.004872094291101796 0.01130145893589784 -0.0002940185955944516 -0.004085058420793528 -0.01398847814762676 -0.01087797297468003 
0.004878168190171479 -0.0009645623553520232 0.0003141129354014581 -0.0009619438781627025 -0.002927709989527526 -0.006469394566066321 
-0.00180031095201719 0.00174222436324845 0.000430256685645792 -0.0003653375239776855 -0.0009504414939557886 -0.00084251146139502 
-0.0001348995932338335 0.0002913125577445029 0.0002147711550690454 -7.870303069454389e-05 -0.0002304189572132249 -5.253705624520216e-05 
-0.0001004106768195707 7.833513604771692e-05 0.0001497879126769407 -3.293043088870513e-05 -0.0001073119195814418 -2.125636513807799e-05 
-0.000277555072134895 -1.425382037898114e-05 0 -4.743323243607755e-05 -7.431868493141111e-05 0.0001866055167644331 
5.23123728069873e-05 0.0002507673973296799 0 -5.070084047793845e-05 -0.0001015736591970323 -0.0002564647078969902 
-2.20977820005998e-05 0 0.0002776904507139139 -4.830614912741681e-05 -0.0002023513265362084 0 
-0.0003678212565915755 0.0003283666773549171 0 -6.19394433225628e-06 -0.0001171421756162366 -0.0001730524346412556 
-3.835432002672195e-05 -1.718121184990195e-05 0 0 -5.798371843096675e-05 -4.917365999164344e-05 
-0.0003712060432135539 0.0006601011732631396 0 -9.766595607204024e-05 -0.0001595503622725552 -0.0003904861129871522 
0 0 0 0 0 0 
-9.57289259086794e-05 3.309163344262545e-05 0.0002104598275197166 -2.854497935634211e-05 -0.0002839606117654134 -0.000156744411779012 
0 0 0 0 0 0 
-6.130194453771149e-05 0.0001517496636478966 0 -2.535907761903016e-05 0 -0.0001642881494306245 
-5.086768057669659e-05 0 3.897305501369165e-05 -7.204945415614988e-06 -3.970754662378011e-05 0 
0.0004149776561227826 -0.0001053807777152653 0 -2.474926923866427e-05 -3.479955189318275e-05 -0.000493615329528 
-0.0004051376069695592 0.0004368396775365292 2.458092420259068e-05 -7.204945415614989e-06 -0.0002005393528621254 1.115025762027127e-05 
-0.002891583334722488 0.00318625879077009 0.0004461380340670255 -0.0002467487358371024 -0.000977931015091347 -0.002495690115736905 
0 0 0 0 0 0 
-9.644169294414542e-05 8.912270888061442e-05 0.0001292467764106299 -8.439125059338228e-05 -0.0001647425574558323 0.0001249145061721244 
-9.650737195133006e-05 0.0001561686193496293 0 -1.280494359359631e-05 -0.0001791805261292118 1.875422243321214e-05 
-2.545241002945503e-05 3.942384829974164e-05 -3.242548001207868e-21 -2.265120153566576e-05 -0.0001310426557360523 9.793537555354913e-05 
0 0 0 0 0 0 
-0.0001249064602728557 6.11773358884707e-05 0.0003747848502442339 -8.391562145717906e-05 -0.0003942205243177797 0 
9.048749964752804e-05 -1.250856253224253e-06 0 0 -7.888172569443503e-06 -0.0001087499569091423 
-0.01100765368592874 0.01193277555319281 0.002652192292911199 -0.002229143333746509 -0.006814255504711042 -0.01556045556268893 
0 0 0 0 0 0 
-0.0001813197656233986 -0.0001911493521289194 0.0003396962964454792 -0.0002062419449054098 -0.0006866055199467471 0.0002196992849219002 
7.624930645732253e-05 -8.120486250156227e-06 -1.507476424976386e-05 -1.953596541142825e-05 -0.0002353311905496877 -0.0001607463084581484 
-0.00571442058736515 0.002222370205030848 0.003706783539001852 -0.002081947049447624 -0.008096463709294708 0.002830040714356075 
0 0 0 0 -1.639039017457526e-05 -6.703209374832916e-05 
-0.0001986251459884236 -0.00184230823545736 -0.0005220411532168563 -0.0004738362900866213 -0.0002946640224842042 0.001094952165303814 
-0.0004543675092679021 -0.0005079447994456385 7.161460216275959e-05 -7.120831842190011e-05 -0.0006550896311495098 0.0004171269027268073 
-0.002066748324969275 0.001146037006676246 0.0008849973588995098 -0.0004584232259613038 -0.001105498914754325 -0.0004293533993121131 
0 0 0 0 0 0 
0.0001939256347218085 -3.051666973333762e-05 0 0 -3.147677939751809e-05 -0.0001892248922684632 
-6.322606359078287e-05 0.0002106981009247635 1.455837878093329e-22 0 -0.0002771214120452454 -0.0001762386703965649 
-0.0003801756674087741 0.000167513672611388 -9.109911650074071e-06 -5.736173462598772e-05 -8.878135730228391e-05 -0.0001553799166934584 
-2.993447242306269e-05 0 0 0 -8.34407246275558e-05 7.112593746893459e-05 
0.0003332392098179388 -5.49266892671389e-05 0 0 -2.190975640161064e-05 -0.0003281434590490915 
0 0 0 0 0 0 
-0.0006402980583475166 -0.0001582019146580049 0.0001989721582871034 -0.0001053019964072452 -0.0003367960025495776 0.0006435225138174888 
0 0 0 0 0 0 
0 0 0 0 0 0 
0 0 0 0 0 0 
1.228667681288331e-05 3.217296582434576e-05 0.000235939624887277 -5.976254689347064e-05 -0.0003136895679112129 -0.0001060158091455368 
0 0 0 0 0 0 
0.0001939256347218085 -3.051666973333762e-05 0 0 -3.147677939751809e-05 -0.0001892248922684632 
-0.0001092157251034264 1.654581672131273e-05 0 0 -5.798371843096675e-05 -2.247495231586563e-05 
-9.572892590867939e-05 3.749736481202944e-05 0.0006823390772942706 -0.0001480700731432834 -0.0006293719090964842 0 
0 0 0 0 0 0 
